digraph Tree {
node [shape=box, style="rounded", color="black", fontname=helvetica] ;
edge [fontname=helvetica] ;
0 [label="X[4] <= 0.5\ngini = 0.6\nsamples = 3095\nvalue = [425, 1932, 2457]"] ;
1 [label="X[5] <= 0.5\ngini = 0.6\nsamples = 2443\nvalue = [226, 1762, 1810]"] ;
0 -> 1 [labeldistance=2.5, labelangle=45, headlabel="True"] ;
2 [label="X[0] <= 8.5\ngini = 0.6\nsamples = 2355\nvalue = [216, 1745, 1699]"] ;
1 -> 2 ;
3 [label="X[8] <= 0.5\ngini = 0.3\nsamples = 736\nvalue = [9, 947, 171]"] ;
2 -> 3 ;
4 [label="X[6] <= 0.5\ngini = 0.2\nsamples = 658\nvalue = [9, 896, 104]"] ;
3 -> 4 ;
5 [label="X[3] <= 0.5\ngini = 0.3\nsamples = 264\nvalue = [9, 316, 67]"] ;
4 -> 5 ;
6 [label="X[1] <= 2.5\ngini = 0.3\nsamples = 230\nvalue = [6, 288, 46]"] ;
5 -> 6 ;
7 [label="X[0] <= 6.5\ngini = 0.3\nsamples = 170\nvalue = [6, 205, 41]"] ;
6 -> 7 ;
8 [label="X[2] <= 0.5\ngini = 0.1\nsamples = 76\nvalue = [2, 103, 1]"] ;
7 -> 8 ;
9 [label="gini = 0.0\nsamples = 61\nvalue = [0, 87, 0]"] ;
8 -> 9 ;
10 [label="X[0] <= 5.0\ngini = 0.3\nsamples = 15\nvalue = [2, 16, 1]"] ;
8 -> 10 ;
11 [label="gini = 0.0\nsamples = 4\nvalue = [0, 4, 0]"] ;
10 -> 11 ;
12 [label="X[1] <= 1.5\ngini = 0.3\nsamples = 11\nvalue = [2, 12, 1]"] ;
10 -> 12 ;
13 [label="gini = 0.4\nsamples = 10\nvalue = [2, 11, 1]"] ;
12 -> 13 ;
14 [label="gini = 0.0\nsamples = 1\nvalue = [0, 1, 0]"] ;
12 -> 14 ;
15 [label="X[0] <= 7.5\ngini = 0.4\nsamples = 94\nvalue = [4, 102, 40]"] ;
7 -> 15 ;
16 [label="X[2] <= 0.5\ngini = 0.3\nsamples = 18\nvalue = [0, 23, 6]"] ;
15 -> 16 ;
17 [label="gini = 0.0\nsamples = 10\nvalue = [0, 17, 0]"] ;
16 -> 17 ;
18 [label="X[1] <= 1.5\ngini = 0.5\nsamples = 8\nvalue = [0, 6, 6]"] ;
16 -> 18 ;
19 [label="gini = 0.5\nsamples = 6\nvalue = [0, 4, 6]"] ;
18 -> 19 ;
20 [label="gini = 0.0\nsamples = 2\nvalue = [0, 2, 0]"] ;
18 -> 20 ;
21 [label="X[2] <= 0.5\ngini = 0.5\nsamples = 76\nvalue = [4, 79, 34]"] ;
15 -> 21 ;
22 [label="X[1] <= 1.5\ngini = 0.1\nsamples = 28\nvalue = [0, 32, 2]"] ;
21 -> 22 ;
23 [label="gini = 0.0\nsamples = 17\nvalue = [0, 19, 0]"] ;
22 -> 23 ;
24 [label="gini = 0.2\nsamples = 11\nvalue = [0, 13, 2]"] ;
22 -> 24 ;
25 [label="X[1] <= 1.5\ngini = 0.5\nsamples = 48\nvalue = [4, 47, 32]"] ;
21 -> 25 ;
26 [label="gini = 0.6\nsamples = 26\nvalue = [4, 26, 18]"] ;
25 -> 26 ;
27 [label="gini = 0.5\nsamples = 22\nvalue = [0, 21, 14]"] ;
25 -> 27 ;
28 [label="X[0] <= 7.5\ngini = 0.1\nsamples = 60\nvalue = [0, 83, 5]"] ;
6 -> 28 ;
29 [label="gini = 0.0\nsamples = 20\nvalue = [0, 28, 0]"] ;
28 -> 29 ;
30 [label="X[1] <= 3.5\ngini = 0.2\nsamples = 40\nvalue = [0, 55, 5]"] ;
28 -> 30 ;
31 [label="X[2] <= 0.5\ngini = 0.3\nsamples = 17\nvalue = [0, 23, 4]"] ;
30 -> 31 ;
32 [label="gini = 0.0\nsamples = 9\nvalue = [0, 16, 0]"] ;
31 -> 32 ;
33 [label="gini = 0.5\nsamples = 8\nvalue = [0, 7, 4]"] ;
31 -> 33 ;
34 [label="X[1] <= 4.5\ngini = 0.1\nsamples = 23\nvalue = [0, 32, 1]"] ;
30 -> 34 ;
35 [label="X[2] <= 0.5\ngini = 0.1\nsamples = 16\nvalue = [0, 22, 1]"] ;
34 -> 35 ;
36 [label="gini = 0.1\nsamples = 13\nvalue = [0, 19, 1]"] ;
35 -> 36 ;
37 [label="gini = 0.0\nsamples = 3\nvalue = [0, 3, 0]"] ;
35 -> 37 ;
38 [label="gini = 0.0\nsamples = 7\nvalue = [0, 10, 0]"] ;
34 -> 38 ;
39 [label="X[1] <= 8.5\ngini = 0.5\nsamples = 34\nvalue = [3, 28, 21]"] ;
5 -> 39 ;
40 [label="X[1] <= 4.5\ngini = 0.5\nsamples = 33\nvalue = [0, 28, 21]"] ;
39 -> 40 ;
41 [label="X[1] <= 3.5\ngini = 0.5\nsamples = 27\nvalue = [0, 26, 14]"] ;
40 -> 41 ;
42 [label="X[1] <= 1.5\ngini = 0.5\nsamples = 20\nvalue = [0, 15, 14]"] ;
41 -> 42 ;
43 [label="gini = 0.0\nsamples = 4\nvalue = [0, 5, 0]"] ;
42 -> 43 ;
44 [label="X[0] <= 7.5\ngini = 0.5\nsamples = 16\nvalue = [0, 10, 14]"] ;
42 -> 44 ;
45 [label="gini = 0.0\nsamples = 2\nvalue = [0, 2, 0]"] ;
44 -> 45 ;
46 [label="X[1] <= 2.5\ngini = 0.5\nsamples = 14\nvalue = [0, 8, 14]"] ;
44 -> 46 ;
47 [label="gini = 0.5\nsamples = 8\nvalue = [0, 5, 8]"] ;
46 -> 47 ;
48 [label="gini = 0.4\nsamples = 6\nvalue = [0, 3, 6]"] ;
46 -> 48 ;
49 [label="gini = 0.0\nsamples = 7\nvalue = [0, 11, 0]"] ;
41 -> 49 ;
50 [label="X[1] <= 5.5\ngini = 0.3\nsamples = 6\nvalue = [0, 2, 7]"] ;
40 -> 50 ;
51 [label="gini = 0.4\nsamples = 3\nvalue = [0, 2, 4]"] ;
50 -> 51 ;
52 [label="gini = 0.0\nsamples = 3\nvalue = [0, 0, 3]"] ;
50 -> 52 ;
53 [label="gini = 0.0\nsamples = 1\nvalue = [3, 0, 0]"] ;
39 -> 53 ;
54 [label="X[3] <= 0.5\ngini = 0.1\nsamples = 394\nvalue = [0, 580, 37]"] ;
4 -> 54 ;
55 [label="X[1] <= 2.5\ngini = 0.1\nsamples = 378\nvalue = [0, 558, 34]"] ;
54 -> 55 ;
56 [label="X[1] <= 1.5\ngini = 0.1\nsamples = 245\nvalue = [0, 369, 10]"] ;
55 -> 56 ;
57 [label="X[0] <= 7.5\ngini = 0.1\nsamples = 110\nvalue = [0, 172, 5]"] ;
56 -> 57 ;
58 [label="gini = 0.0\nsamples = 40\nvalue = [0, 68, 0]"] ;
57 -> 58 ;
59 [label="X[2] <= 0.5\ngini = 0.1\nsamples = 70\nvalue = [0, 104, 5]"] ;
57 -> 59 ;
60 [label="gini = 0.1\nsamples = 65\nvalue = [0, 97, 5]"] ;
59 -> 60 ;
61 [label="gini = 0.0\nsamples = 5\nvalue = [0, 7, 0]"] ;
59 -> 61 ;
62 [label="X[2] <= 0.5\ngini = 0.0\nsamples = 135\nvalue = [0, 197, 5]"] ;
56 -> 62 ;
63 [label="X[0] <= 7.5\ngini = 0.1\nsamples = 128\nvalue = [0, 185, 5]"] ;
62 -> 63 ;
64 [label="gini = 0.0\nsamples = 25\nvalue = [0, 40, 0]"] ;
63 -> 64 ;
65 [label="gini = 0.1\nsamples = 103\nvalue = [0, 145, 5]"] ;
63 -> 65 ;
66 [label="gini = 0.0\nsamples = 7\nvalue = [0, 12, 0]"] ;
62 -> 66 ;
67 [label="X[0] <= 6.5\ngini = 0.2\nsamples = 133\nvalue = [0, 189, 24]"] ;
55 -> 67 ;
68 [label="gini = 0.0\nsamples = 14\nvalue = [0, 21, 0]"] ;
67 -> 68 ;
69 [label="X[2] <= 0.5\ngini = 0.2\nsamples = 119\nvalue = [0, 168, 24]"] ;
67 -> 69 ;
70 [label="X[0] <= 7.5\ngini = 0.2\nsamples = 112\nvalue = [0, 150, 24]"] ;
69 -> 70 ;
71 [label="X[1] <= 4.0\ngini = 0.2\nsamples = 11\nvalue = [0, 11, 1]"] ;
70 -> 71 ;
72 [label="gini = 0.2\nsamples = 10\nvalue = [0, 10, 1]"] ;
71 -> 72 ;
73 [label="gini = 0.0\nsamples = 1\nvalue = [0, 1, 0]"] ;
71 -> 73 ;
74 [label="X[1] <= 5.5\ngini = 0.2\nsamples = 101\nvalue = [0, 139, 23]"] ;
70 -> 74 ;
75 [label="X[1] <= 3.5\ngini = 0.3\nsamples = 95\nvalue = [0, 131, 23]"] ;
74 -> 75 ;
76 [label="gini = 0.2\nsamples = 52\nvalue = [0, 79, 12]"] ;
75 -> 76 ;
77 [label="X[1] <= 4.5\ngini = 0.3\nsamples = 43\nvalue = [0, 52, 11]"] ;
75 -> 77 ;
78 [label="gini = 0.3\nsamples = 30\nvalue = [0, 38, 8]"] ;
77 -> 78 ;
79 [label="gini = 0.3\nsamples = 13\nvalue = [0, 14, 3]"] ;
77 -> 79 ;
80 [label="gini = 0.0\nsamples = 6\nvalue = [0, 8, 0]"] ;
74 -> 80 ;
81 [label="gini = 0.0\nsamples = 7\nvalue = [0, 18, 0]"] ;
69 -> 81 ;
82 [label="X[1] <= 3.5\ngini = 0.2\nsamples = 16\nvalue = [0, 22, 3]"] ;
54 -> 82 ;
83 [label="gini = 0.0\nsamples = 11\nvalue = [0, 17, 0]"] ;
82 -> 83 ;
84 [label="X[1] <= 4.5\ngini = 0.5\nsamples = 5\nvalue = [0, 5, 3]"] ;
82 -> 84 ;
85 [label="gini = 0.5\nsamples = 3\nvalue = [0, 2, 3]"] ;
84 -> 85 ;
86 [label="gini = 0.0\nsamples = 2\nvalue = [0, 3, 0]"] ;
84 -> 86 ;
87 [label="X[1] <= 3.5\ngini = 0.5\nsamples = 78\nvalue = [0, 51, 67]"] ;
3 -> 87 ;
88 [label="X[6] <= 0.5\ngini = 0.5\nsamples = 55\nvalue = [0, 45, 36]"] ;
87 -> 88 ;
89 [label="X[0] <= 6.5\ngini = 0.5\nsamples = 23\nvalue = [0, 15, 15]"] ;
88 -> 89 ;
90 [label="gini = 0.0\nsamples = 1\nvalue = [0, 2, 0]"] ;
89 -> 90 ;
91 [label="X[3] <= 0.5\ngini = 0.5\nsamples = 22\nvalue = [0, 13, 15]"] ;
89 -> 91 ;
92 [label="X[1] <= 1.5\ngini = 0.5\nsamples = 20\nvalue = [0, 12, 13]"] ;
91 -> 92 ;
93 [label="X[0] <= 7.5\ngini = 0.5\nsamples = 7\nvalue = [0, 3, 5]"] ;
92 -> 93 ;
94 [label="gini = 0.0\nsamples = 1\nvalue = [0, 0, 1]"] ;
93 -> 94 ;
95 [label="gini = 0.5\nsamples = 6\nvalue = [0, 3, 4]"] ;
93 -> 95 ;
96 [label="X[1] <= 2.5\ngini = 0.5\nsamples = 13\nvalue = [0, 9, 8]"] ;
92 -> 96 ;
97 [label="X[2] <= 0.5\ngini = 0.4\nsamples = 5\nvalue = [0, 4, 2]"] ;
96 -> 97 ;
98 [label="gini = 0.4\nsamples = 3\nvalue = [0, 1, 2]"] ;
97 -> 98 ;
99 [label="gini = 0.0\nsamples = 2\nvalue = [0, 3, 0]"] ;
97 -> 99 ;
100 [label="X[2] <= 0.5\ngini = 0.5\nsamples = 8\nvalue = [0, 5, 6]"] ;
96 -> 100 ;
101 [label="X[0] <= 7.5\ngini = 0.5\nsamples = 6\nvalue = [0, 4, 4]"] ;
100 -> 101 ;
102 [label="gini = 0.0\nsamples = 1\nvalue = [0, 1, 0]"] ;
101 -> 102 ;
103 [label="gini = 0.5\nsamples = 5\nvalue = [0, 3, 4]"] ;
101 -> 103 ;
104 [label="gini = 0.4\nsamples = 2\nvalue = [0, 1, 2]"] ;
100 -> 104 ;
105 [label="X[1] <= 2.0\ngini = 0.4\nsamples = 2\nvalue = [0, 1, 2]"] ;
91 -> 105 ;
106 [label="gini = 0.0\nsamples = 1\nvalue = [0, 0, 2]"] ;
105 -> 106 ;
107 [label="gini = 0.0\nsamples = 1\nvalue = [0, 1, 0]"] ;
105 -> 107 ;
108 [label="X[0] <= 7.5\ngini = 0.5\nsamples = 32\nvalue = [0, 30, 21]"] ;
88 -> 108 ;
109 [label="gini = 0.0\nsamples = 1\nvalue = [0, 1, 0]"] ;
108 -> 109 ;
110 [label="X[1] <= 2.5\ngini = 0.5\nsamples = 31\nvalue = [0, 29, 21]"] ;
108 -> 110 ;
111 [label="X[1] <= 1.5\ngini = 0.5\nsamples = 22\nvalue = [0, 19, 19]"] ;
110 -> 111 ;
112 [label="gini = 0.4\nsamples = 6\nvalue = [0, 2, 5]"] ;
111 -> 112 ;
113 [label="gini = 0.5\nsamples = 16\nvalue = [0, 17, 14]"] ;
111 -> 113 ;
114 [label="gini = 0.3\nsamples = 9\nvalue = [0, 10, 2]"] ;
110 -> 114 ;
115 [label="X[3] <= 0.5\ngini = 0.3\nsamples = 23\nvalue = [0, 6, 31]"] ;
87 -> 115 ;
116 [label="X[1] <= 6.0\ngini = 0.2\nsamples = 22\nvalue = [0, 5, 31]"] ;
115 -> 116 ;
117 [label="X[1] <= 4.5\ngini = 0.2\nsamples = 18\nvalue = [0, 4, 28]"] ;
116 -> 117 ;
118 [label="X[6] <= 0.5\ngini = 0.2\nsamples = 13\nvalue = [0, 3, 20]"] ;
117 -> 118 ;
119 [label="gini = 0.3\nsamples = 6\nvalue = [0, 2, 11]"] ;
118 -> 119 ;
120 [label="gini = 0.2\nsamples = 7\nvalue = [0, 1, 9]"] ;
118 -> 120 ;
121 [label="X[6] <= 0.5\ngini = 0.2\nsamples = 5\nvalue = [0, 1, 8]"] ;
117 -> 121 ;
122 [label="gini = 0.0\nsamples = 3\nvalue = [0, 0, 7]"] ;
121 -> 122 ;
123 [label="gini = 0.5\nsamples = 2\nvalue = [0, 1, 1]"] ;
121 -> 123 ;
124 [label="X[6] <= 0.5\ngini = 0.4\nsamples = 4\nvalue = [0, 1, 3]"] ;
116 -> 124 ;
125 [label="gini = 0.0\nsamples = 1\nvalue = [0, 0, 1]"] ;
124 -> 125 ;
126 [label="gini = 0.4\nsamples = 3\nvalue = [0, 1, 2]"] ;
124 -> 126 ;
127 [label="gini = 0.0\nsamples = 1\nvalue = [0, 1, 0]"] ;
115 -> 127 ;
128 [label="X[6] <= 0.5\ngini = 0.5\nsamples = 1619\nvalue = [207, 798, 1528]"] ;
2 -> 128 ;
129 [label="X[1] <= 1.5\ngini = 0.5\nsamples = 1217\nvalue = [205, 414, 1291]"] ;
128 -> 129 ;
130 [label="X[8] <= 0.5\ngini = 0.6\nsamples = 162\nvalue = [16, 108, 122]"] ;
129 -> 130 ;
131 [label="X[2] <= 0.5\ngini = 0.5\nsamples = 90\nvalue = [3, 89, 51]"] ;
130 -> 131 ;
132 [label="X[3] <= 0.5\ngini = 0.4\nsamples = 60\nvalue = [3, 71, 23]"] ;
131 -> 132 ;
133 [label="X[0] <= 12.5\ngini = 0.2\nsamples = 35\nvalue = [0, 49, 5]"] ;
132 -> 133 ;
134 [label="X[0] <= 11.0\ngini = 0.2\nsamples = 27\nvalue = [0, 33, 5]"] ;
133 -> 134 ;
135 [label="X[0] <= 9.5\ngini = 0.1\nsamples = 14\nvalue = [0, 16, 1]"] ;
134 -> 135 ;
136 [label="gini = 0.0\nsamples = 2\nvalue = [0, 2, 0]"] ;
135 -> 136 ;
137 [label="gini = 0.1\nsamples = 12\nvalue = [0, 14, 1]"] ;
135 -> 137 ;
138 [label="gini = 0.3\nsamples = 13\nvalue = [0, 17, 4]"] ;
134 -> 138 ;
139 [label="gini = 0.0\nsamples = 8\nvalue = [0, 16, 0]"] ;
133 -> 139 ;
140 [label="X[0] <= 12.5\ngini = 0.6\nsamples = 25\nvalue = [3, 22, 18]"] ;
132 -> 140 ;
141 [label="X[0] <= 11.5\ngini = 0.5\nsamples = 20\nvalue = [3, 22, 12]"] ;
140 -> 141 ;
142 [label="X[0] <= 9.5\ngini = 0.3\nsamples = 10\nvalue = [0, 14, 4]"] ;
141 -> 142 ;
143 [label="gini = 0.0\nsamples = 1\nvalue = [0, 1, 0]"] ;
142 -> 143 ;
144 [label="X[0] <= 10.5\ngini = 0.4\nsamples = 9\nvalue = [0, 13, 4]"] ;
142 -> 144 ;
145 [label="gini = 0.3\nsamples = 7\nvalue = [0, 11, 3]"] ;
144 -> 145 ;
146 [label="gini = 0.4\nsamples = 2\nvalue = [0, 2, 1]"] ;
144 -> 146 ;
147 [label="gini = 0.6\nsamples = 10\nvalue = [3, 8, 8]"] ;
141 -> 147 ;
148 [label="gini = 0.0\nsamples = 5\nvalue = [0, 0, 6]"] ;
140 -> 148 ;
149 [label="X[0] <= 15.0\ngini = 0.5\nsamples = 30\nvalue = [0, 18, 28]"] ;
131 -> 149 ;
150 [label="X[0] <= 9.5\ngini = 0.5\nsamples = 29\nvalue = [0, 16, 28]"] ;
149 -> 150 ;
151 [label="gini = 0.2\nsamples = 4\nvalue = [0, 1, 6]"] ;
150 -> 151 ;
152 [label="X[0] <= 11.0\ngini = 0.5\nsamples = 25\nvalue = [0, 15, 22]"] ;
150 -> 152 ;
153 [label="gini = 0.5\nsamples = 18\nvalue = [0, 12, 12]"] ;
152 -> 153 ;
154 [label="gini = 0.4\nsamples = 7\nvalue = [0, 3, 10]"] ;
152 -> 154 ;
155 [label="gini = 0.0\nsamples = 1\nvalue = [0, 2, 0]"] ;
149 -> 155 ;
156 [label="X[0] <= 12.5\ngini = 0.5\nsamples = 72\nvalue = [13, 19, 71]"] ;
130 -> 156 ;
157 [label="X[3] <= 0.5\ngini = 0.4\nsamples = 58\nvalue = [3, 15, 63]"] ;
156 -> 157 ;
158 [label="X[2] <= 0.5\ngini = 0.3\nsamples = 51\nvalue = [2, 11, 57]"] ;
157 -> 158 ;
159 [label="X[0] <= 9.5\ngini = 0.3\nsamples = 49\nvalue = [2, 10, 55]"] ;
158 -> 159 ;
160 [label="gini = 0.5\nsamples = 2\nvalue = [0, 2, 2]"] ;
159 -> 160 ;
161 [label="X[0] <= 11.0\ngini = 0.3\nsamples = 47\nvalue = [2, 8, 53]"] ;
159 -> 161 ;
162 [label="gini = 0.2\nsamples = 16\nvalue = [0, 2, 19]"] ;
161 -> 162 ;
163 [label="gini = 0.3\nsamples = 31\nvalue = [2, 6, 34]"] ;
161 -> 163 ;
164 [label="gini = 0.4\nsamples = 2\nvalue = [0, 1, 2]"] ;
158 -> 164 ;
165 [label="X[0] <= 11.5\ngini = 0.6\nsamples = 7\nvalue = [1, 4, 6]"] ;
157 -> 165 ;
166 [label="gini = 0.0\nsamples = 1\nvalue = [0, 0, 2]"] ;
165 -> 166 ;
167 [label="gini = 0.6\nsamples = 6\nvalue = [1, 4, 4]"] ;
165 -> 167 ;
168 [label="X[0] <= 14.5\ngini = 0.6\nsamples = 14\nvalue = [10, 4, 8]"] ;
156 -> 168 ;
169 [label="X[3] <= 0.5\ngini = 0.6\nsamples = 13\nvalue = [10, 2, 8]"] ;
168 -> 169 ;
170 [label="X[0] <= 13.5\ngini = 0.6\nsamples = 11\nvalue = [7, 2, 8]"] ;
169 -> 170 ;
171 [label="gini = 0.5\nsamples = 6\nvalue = [2, 1, 5]"] ;
170 -> 171 ;
172 [label="gini = 0.6\nsamples = 5\nvalue = [5, 1, 3]"] ;
170 -> 172 ;
173 [label="gini = 0.0\nsamples = 2\nvalue = [3, 0, 0]"] ;
169 -> 173 ;
174 [label="gini = 0.0\nsamples = 1\nvalue = [0, 2, 0]"] ;
168 -> 174 ;
175 [label="X[8] <= 0.5\ngini = 0.5\nsamples = 1055\nvalue = [189, 306, 1169]"] ;
129 -> 175 ;
176 [label="X[3] <= 0.5\ngini = 0.5\nsamples = 410\nvalue = [30, 259, 335]"] ;
175 -> 176 ;
177 [label="X[0] <= 14.5\ngini = 0.4\nsamples = 142\nvalue = [0, 151, 67]"] ;
176 -> 177 ;
178 [label="X[0] <= 12.5\ngini = 0.4\nsamples = 136\nvalue = [0, 143, 67]"] ;
177 -> 178 ;
179 [label="X[1] <= 4.5\ngini = 0.4\nsamples = 111\nvalue = [0, 124, 51]"] ;
178 -> 179 ;
180 [label="X[1] <= 2.5\ngini = 0.4\nsamples = 102\nvalue = [0, 111, 51]"] ;
179 -> 180 ;
181 [label="X[0] <= 10.5\ngini = 0.5\nsamples = 51\nvalue = [0, 51, 27]"] ;
180 -> 181 ;
182 [label="X[2] <= 0.5\ngini = 0.4\nsamples = 34\nvalue = [0, 35, 15]"] ;
181 -> 182 ;
183 [label="X[0] <= 9.5\ngini = 0.2\nsamples = 18\nvalue = [0, 28, 3]"] ;
182 -> 183 ;
184 [label="gini = 0.0\nsamples = 3\nvalue = [0, 7, 0]"] ;
183 -> 184 ;
185 [label="gini = 0.2\nsamples = 15\nvalue = [0, 21, 3]"] ;
183 -> 185 ;
186 [label="X[0] <= 9.5\ngini = 0.5\nsamples = 16\nvalue = [0, 7, 12]"] ;
182 -> 186 ;
187 [label="gini = 0.3\nsamples = 5\nvalue = [0, 1, 4]"] ;
186 -> 187 ;
188 [label="gini = 0.5\nsamples = 11\nvalue = [0, 6, 8]"] ;
186 -> 188 ;
189 [label="X[2] <= 0.5\ngini = 0.5\nsamples = 17\nvalue = [0, 16, 12]"] ;
181 -> 189 ;
190 [label="gini = 0.2\nsamples = 12\nvalue = [0, 16, 2]"] ;
189 -> 190 ;
191 [label="gini = 0.0\nsamples = 5\nvalue = [0, 0, 10]"] ;
189 -> 191 ;
192 [label="X[2] <= 0.5\ngini = 0.4\nsamples = 51\nvalue = [0, 60, 24]"] ;
180 -> 192 ;
193 [label="X[0] <= 11.0\ngini = 0.3\nsamples = 26\nvalue = [0, 39, 11]"] ;
192 -> 193 ;
194 [label="X[0] <= 9.5\ngini = 0.4\nsamples = 9\nvalue = [0, 12, 5]"] ;
193 -> 194 ;
195 [label="gini = 0.0\nsamples = 1\nvalue = [0, 2, 0]"] ;
194 -> 195 ;
196 [label="X[1] <= 3.5\ngini = 0.4\nsamples = 8\nvalue = [0, 10, 5]"] ;
194 -> 196 ;
197 [label="gini = 0.5\nsamples = 5\nvalue = [0, 6, 5]"] ;
196 -> 197 ;
198 [label="gini = 0.0\nsamples = 3\nvalue = [0, 4, 0]"] ;
196 -> 198 ;
199 [label="X[1] <= 3.5\ngini = 0.3\nsamples = 17\nvalue = [0, 27, 6]"] ;
193 -> 199 ;
200 [label="gini = 0.0\nsamples = 8\nvalue = [0, 17, 0]"] ;
199 -> 200 ;
201 [label="gini = 0.5\nsamples = 9\nvalue = [0, 10, 6]"] ;
199 -> 201 ;
202 [label="X[1] <= 3.5\ngini = 0.5\nsamples = 25\nvalue = [0, 21, 13]"] ;
192 -> 202 ;
203 [label="X[0] <= 9.5\ngini = 0.4\nsamples = 14\nvalue = [0, 13, 6]"] ;
202 -> 203 ;
204 [label="gini = 0.0\nsamples = 1\nvalue = [0, 0, 1]"] ;
203 -> 204 ;
205 [label="X[0] <= 11.0\ngini = 0.4\nsamples = 13\nvalue = [0, 13, 5]"] ;
203 -> 205 ;
206 [label="gini = 0.4\nsamples = 9\nvalue = [0, 10, 4]"] ;
205 -> 206 ;
207 [label="gini = 0.4\nsamples = 4\nvalue = [0, 3, 1]"] ;
205 -> 207 ;
208 [label="X[0] <= 11.0\ngini = 0.5\nsamples = 11\nvalue = [0, 8, 7]"] ;
202 -> 208 ;
209 [label="gini = 0.5\nsamples = 8\nvalue = [0, 7, 4]"] ;
208 -> 209 ;
210 [label="gini = 0.4\nsamples = 3\nvalue = [0, 1, 3]"] ;
208 -> 210 ;
211 [label="gini = 0.0\nsamples = 9\nvalue = [0, 13, 0]"] ;
179 -> 211 ;
212 [label="X[1] <= 5.5\ngini = 0.5\nsamples = 25\nvalue = [0, 19, 16]"] ;
178 -> 212 ;
213 [label="X[1] <= 4.5\ngini = 0.5\nsamples = 24\nvalue = [0, 19, 14]"] ;
212 -> 213 ;
214 [label="X[0] <= 13.5\ngini = 0.5\nsamples = 23\nvalue = [0, 17, 14]"] ;
213 -> 214 ;
215 [label="X[2] <= 0.5\ngini = 0.5\nsamples = 15\nvalue = [0, 10, 9]"] ;
214 -> 215 ;
216 [label="X[1] <= 3.5\ngini = 0.5\nsamples = 11\nvalue = [0, 9, 6]"] ;
215 -> 216 ;
217 [label="X[1] <= 2.5\ngini = 0.5\nsamples = 9\nvalue = [0, 7, 5]"] ;
216 -> 217 ;
218 [label="gini = 0.5\nsamples = 5\nvalue = [0, 3, 2]"] ;
217 -> 218 ;
219 [label="gini = 0.5\nsamples = 4\nvalue = [0, 4, 3]"] ;
217 -> 219 ;
220 [label="gini = 0.4\nsamples = 2\nvalue = [0, 2, 1]"] ;
216 -> 220 ;
221 [label="X[1] <= 3.5\ngini = 0.4\nsamples = 4\nvalue = [0, 1, 3]"] ;
215 -> 221 ;
222 [label="gini = 0.0\nsamples = 2\nvalue = [0, 0, 2]"] ;
221 -> 222 ;
223 [label="gini = 0.5\nsamples = 2\nvalue = [0, 1, 1]"] ;
221 -> 223 ;
224 [label="X[2] <= 0.5\ngini = 0.5\nsamples = 8\nvalue = [0, 7, 5]"] ;
214 -> 224 ;
225 [label="X[1] <= 2.5\ngini = 0.5\nsamples = 6\nvalue = [0, 3, 5]"] ;
224 -> 225 ;
226 [label="gini = 0.0\nsamples = 1\nvalue = [0, 0, 3]"] ;
225 -> 226 ;
227 [label="X[1] <= 3.5\ngini = 0.5\nsamples = 5\nvalue = [0, 3, 2]"] ;
225 -> 227 ;
228 [label="gini = 0.4\nsamples = 3\nvalue = [0, 2, 1]"] ;
227 -> 228 ;
229 [label="gini = 0.5\nsamples = 2\nvalue = [0, 1, 1]"] ;
227 -> 229 ;
230 [label="gini = 0.0\nsamples = 2\nvalue = [0, 4, 0]"] ;
224 -> 230 ;
231 [label="gini = 0.0\nsamples = 1\nvalue = [0, 2, 0]"] ;
213 -> 231 ;
232 [label="gini = 0.0\nsamples = 1\nvalue = [0, 0, 2]"] ;
212 -> 232 ;
233 [label="gini = 0.0\nsamples = 6\nvalue = [0, 8, 0]"] ;
177 -> 233 ;
234 [label="X[0] <= 10.5\ngini = 0.5\nsamples = 268\nvalue = [30, 108, 268]"] ;
176 -> 234 ;
235 [label="X[0] <= 9.5\ngini = 0.5\nsamples = 81\nvalue = [1, 55, 61]"] ;
234 -> 235 ;
236 [label="gini = 0.2\nsamples = 8\nvalue = [0, 1, 9]"] ;
235 -> 236 ;
237 [label="X[1] <= 6.5\ngini = 0.5\nsamples = 73\nvalue = [1, 54, 52]"] ;
235 -> 237 ;
238 [label="X[1] <= 2.5\ngini = 0.5\nsamples = 72\nvalue = [1, 54, 51]"] ;
237 -> 238 ;
239 [label="gini = 0.5\nsamples = 21\nvalue = [0, 13, 17]"] ;
238 -> 239 ;
240 [label="X[1] <= 5.5\ngini = 0.5\nsamples = 51\nvalue = [1, 41, 34]"] ;
238 -> 240 ;
241 [label="X[1] <= 3.5\ngini = 0.5\nsamples = 50\nvalue = [1, 40, 34]"] ;
240 -> 241 ;
242 [label="gini = 0.5\nsamples = 20\nvalue = [0, 19, 13]"] ;
241 -> 242 ;
243 [label="X[1] <= 4.5\ngini = 0.5\nsamples = 30\nvalue = [1, 21, 21]"] ;
241 -> 243 ;
244 [label="gini = 0.5\nsamples = 13\nvalue = [0, 7, 9]"] ;
243 -> 244 ;
245 [label="gini = 0.5\nsamples = 17\nvalue = [1, 14, 12]"] ;
243 -> 245 ;
246 [label="gini = 0.0\nsamples = 1\nvalue = [0, 1, 0]"] ;
240 -> 246 ;
247 [label="gini = 0.0\nsamples = 1\nvalue = [0, 0, 1]"] ;
237 -> 247 ;
248 [label="X[1] <= 3.5\ngini = 0.4\nsamples = 187\nvalue = [29, 53, 207]"] ;
234 -> 248 ;
249 [label="X[0] <= 14.5\ngini = 0.5\nsamples = 65\nvalue = [0, 34, 58]"] ;
248 -> 249 ;
250 [label="X[1] <= 2.5\ngini = 0.4\nsamples = 55\nvalue = [0, 26, 51]"] ;
249 -> 250 ;
251 [label="X[0] <= 12.5\ngini = 0.5\nsamples = 25\nvalue = [0, 14, 22]"] ;
250 -> 251 ;
252 [label="gini = 0.5\nsamples = 14\nvalue = [0, 9, 9]"] ;
251 -> 252 ;
253 [label="X[0] <= 13.5\ngini = 0.4\nsamples = 11\nvalue = [0, 5, 13]"] ;
251 -> 253 ;
254 [label="gini = 0.4\nsamples = 3\nvalue = [0, 1, 3]"] ;
253 -> 254 ;
255 [label="gini = 0.4\nsamples = 8\nvalue = [0, 4, 10]"] ;
253 -> 255 ;
256 [label="X[0] <= 12.5\ngini = 0.4\nsamples = 30\nvalue = [0, 12, 29]"] ;
250 -> 256 ;
257 [label="gini = 0.4\nsamples = 15\nvalue = [0, 6, 12]"] ;
256 -> 257 ;
258 [label="X[0] <= 13.5\ngini = 0.4\nsamples = 15\nvalue = [0, 6, 17]"] ;
256 -> 258 ;
259 [label="gini = 0.3\nsamples = 10\nvalue = [0, 3, 11]"] ;
258 -> 259 ;
260 [label="gini = 0.4\nsamples = 5\nvalue = [0, 3, 6]"] ;
258 -> 260 ;
261 [label="X[0] <= 17.0\ngini = 0.5\nsamples = 10\nvalue = [0, 8, 7]"] ;
249 -> 261 ;
262 [label="X[1] <= 2.5\ngini = 0.5\nsamples = 8\nvalue = [0, 7, 5]"] ;
261 -> 262 ;
263 [label="gini = 0.0\nsamples = 3\nvalue = [0, 4, 0]"] ;
262 -> 263 ;
264 [label="X[0] <= 15.5\ngini = 0.5\nsamples = 5\nvalue = [0, 3, 5]"] ;
262 -> 264 ;
265 [label="gini = 0.0\nsamples = 1\nvalue = [0, 0, 1]"] ;
264 -> 265 ;
266 [label="gini = 0.5\nsamples = 4\nvalue = [0, 3, 4]"] ;
264 -> 266 ;
267 [label="X[1] <= 2.5\ngini = 0.4\nsamples = 2\nvalue = [0, 1, 2]"] ;
261 -> 267 ;
268 [label="gini = 0.0\nsamples = 1\nvalue = [0, 1, 0]"] ;
267 -> 268 ;
269 [label="gini = 0.0\nsamples = 1\nvalue = [0, 0, 2]"] ;
267 -> 269 ;
270 [label="X[0] <= 13.5\ngini = 0.4\nsamples = 122\nvalue = [29, 19, 149]"] ;
248 -> 270 ;
271 [label="X[1] <= 7.5\ngini = 0.4\nsamples = 85\nvalue = [14, 16, 101]"] ;
270 -> 271 ;
272 [label="X[1] <= 5.5\ngini = 0.3\nsamples = 78\nvalue = [14, 10, 95]"] ;
271 -> 272 ;
273 [label="X[1] <= 4.5\ngini = 0.4\nsamples = 52\nvalue = [9, 10, 61]"] ;
272 -> 273 ;
274 [label="X[0] <= 12.5\ngini = 0.4\nsamples = 27\nvalue = [4, 6, 28]"] ;
273 -> 274 ;
275 [label="gini = 0.5\nsamples = 17\nvalue = [4, 3, 16]"] ;
274 -> 275 ;
276 [label="gini = 0.3\nsamples = 10\nvalue = [0, 3, 12]"] ;
274 -> 276 ;
277 [label="X[0] <= 12.5\ngini = 0.4\nsamples = 25\nvalue = [5, 4, 33]"] ;
273 -> 277 ;
278 [label="X[0] <= 11.5\ngini = 0.4\nsamples = 15\nvalue = [3, 3, 17]"] ;
277 -> 278 ;
279 [label="gini = 0.0\nsamples = 1\nvalue = [0, 0, 2]"] ;
278 -> 279 ;
280 [label="gini = 0.4\nsamples = 14\nvalue = [3, 3, 15]"] ;
278 -> 280 ;
281 [label="gini = 0.3\nsamples = 10\nvalue = [2, 1, 16]"] ;
277 -> 281 ;
282 [label="X[0] <= 12.5\ngini = 0.2\nsamples = 26\nvalue = [5, 0, 34]"] ;
272 -> 282 ;
283 [label="X[1] <= 6.5\ngini = 0.3\nsamples = 20\nvalue = [5, 0, 27]"] ;
282 -> 283 ;
284 [label="gini = 0.3\nsamples = 18\nvalue = [5, 0, 23]"] ;
283 -> 284 ;
285 [label="gini = 0.0\nsamples = 2\nvalue = [0, 0, 4]"] ;
283 -> 285 ;
286 [label="gini = 0.0\nsamples = 6\nvalue = [0, 0, 7]"] ;
282 -> 286 ;
287 [label="X[1] <= 8.5\ngini = 0.5\nsamples = 7\nvalue = [0, 6, 6]"] ;
271 -> 287 ;
288 [label="X[0] <= 12.5\ngini = 0.5\nsamples = 6\nvalue = [0, 6, 5]"] ;
287 -> 288 ;
289 [label="gini = 0.0\nsamples = 2\nvalue = [0, 0, 4]"] ;
288 -> 289 ;
290 [label="gini = 0.2\nsamples = 4\nvalue = [0, 6, 1]"] ;
288 -> 290 ;
291 [label="gini = 0.0\nsamples = 1\nvalue = [0, 0, 1]"] ;
287 -> 291 ;
292 [label="X[1] <= 4.5\ngini = 0.4\nsamples = 37\nvalue = [15, 3, 48]"] ;
270 -> 292 ;
293 [label="gini = 0.6\nsamples = 10\nvalue = [7, 3, 7]"] ;
292 -> 293 ;
294 [label="X[1] <= 8.5\ngini = 0.3\nsamples = 27\nvalue = [8, 0, 41]"] ;
292 -> 294 ;
295 [label="X[0] <= 16.5\ngini = 0.3\nsamples = 24\nvalue = [8, 0, 37]"] ;
294 -> 295 ;
296 [label="X[1] <= 7.5\ngini = 0.3\nsamples = 22\nvalue = [7, 0, 35]"] ;
295 -> 296 ;
297 [label="X[1] <= 6.5\ngini = 0.3\nsamples = 18\nvalue = [5, 0, 29]"] ;
296 -> 297 ;
298 [label="X[0] <= 15.0\ngini = 0.3\nsamples = 17\nvalue = [5, 0, 25]"] ;
297 -> 298 ;
299 [label="X[1] <= 5.5\ngini = 0.3\nsamples = 16\nvalue = [5, 0, 23]"] ;
298 -> 299 ;
300 [label="gini = 0.3\nsamples = 10\nvalue = [3, 0, 15]"] ;
299 -> 300 ;
301 [label="gini = 0.3\nsamples = 6\nvalue = [2, 0, 8]"] ;
299 -> 301 ;
302 [label="gini = 0.0\nsamples = 1\nvalue = [0, 0, 2]"] ;
298 -> 302 ;
303 [label="gini = 0.0\nsamples = 1\nvalue = [0, 0, 4]"] ;
297 -> 303 ;
304 [label="gini = 0.4\nsamples = 4\nvalue = [2, 0, 6]"] ;
296 -> 304 ;
305 [label="X[1] <= 5.5\ngini = 0.4\nsamples = 2\nvalue = [1, 0, 2]"] ;
295 -> 305 ;
306 [label="gini = 0.0\nsamples = 1\nvalue = [1, 0, 0]"] ;
305 -> 306 ;
307 [label="gini = 0.0\nsamples = 1\nvalue = [0, 0, 2]"] ;
305 -> 307 ;
308 [label="gini = 0.0\nsamples = 3\nvalue = [0, 0, 4]"] ;
294 -> 308 ;
309 [label="X[3] <= 0.5\ngini = 0.3\nsamples = 645\nvalue = [159, 47, 834]"] ;
175 -> 309 ;
310 [label="X[2] <= 0.5\ngini = 0.3\nsamples = 555\nvalue = [145, 38, 705]"] ;
309 -> 310 ;
311 [label="X[0] <= 13.5\ngini = 0.3\nsamples = 546\nvalue = [144, 37, 696]"] ;
310 -> 311 ;
312 [label="X[0] <= 11.5\ngini = 0.3\nsamples = 473\nvalue = [98, 31, 630]"] ;
311 -> 312 ;
313 [label="X[1] <= 6.5\ngini = 0.2\nsamples = 160\nvalue = [7, 18, 250]"] ;
312 -> 313 ;
314 [label="X[0] <= 10.5\ngini = 0.2\nsamples = 155\nvalue = [5, 18, 245]"] ;
313 -> 314 ;
315 [label="X[1] <= 4.5\ngini = 0.2\nsamples = 152\nvalue = [5, 18, 241]"] ;
314 -> 315 ;
316 [label="X[1] <= 2.5\ngini = 0.2\nsamples = 135\nvalue = [3, 18, 213]"] ;
315 -> 316 ;
317 [label="X[0] <= 9.5\ngini = 0.1\nsamples = 40\nvalue = [0, 5, 72]"] ;
316 -> 317 ;
318 [label="gini = 0.0\nsamples = 1\nvalue = [0, 0, 1]"] ;
317 -> 318 ;
319 [label="gini = 0.1\nsamples = 39\nvalue = [0, 5, 71]"] ;
317 -> 319 ;
320 [label="X[1] <= 3.5\ngini = 0.2\nsamples = 95\nvalue = [3, 13, 141]"] ;
316 -> 320 ;
321 [label="X[0] <= 9.5\ngini = 0.2\nsamples = 55\nvalue = [2, 9, 79]"] ;
320 -> 321 ;
322 [label="gini = 0.0\nsamples = 1\nvalue = [0, 0, 2]"] ;
321 -> 322 ;
323 [label="gini = 0.2\nsamples = 54\nvalue = [2, 9, 77]"] ;
321 -> 323 ;
324 [label="gini = 0.1\nsamples = 40\nvalue = [1, 4, 62]"] ;
320 -> 324 ;
325 [label="X[1] <= 5.5\ngini = 0.1\nsamples = 17\nvalue = [2, 0, 28]"] ;
315 -> 325 ;
326 [label="gini = 0.2\nsamples = 14\nvalue = [2, 0, 22]"] ;
325 -> 326 ;
327 [label="gini = 0.0\nsamples = 3\nvalue = [0, 0, 6]"] ;
325 -> 327 ;
328 [label="gini = 0.0\nsamples = 3\nvalue = [0, 0, 4]"] ;
314 -> 328 ;
329 [label="X[0] <= 10.5\ngini = 0.4\nsamples = 5\nvalue = [2, 0, 5]"] ;
313 -> 329 ;
330 [label="gini = 0.5\nsamples = 3\nvalue = [2, 0, 3]"] ;
329 -> 330 ;
331 [label="gini = 0.0\nsamples = 2\nvalue = [0, 0, 2]"] ;
329 -> 331 ;
332 [label="X[0] <= 12.5\ngini = 0.3\nsamples = 313\nvalue = [91, 13, 380]"] ;
312 -> 332 ;
333 [label="X[1] <= 5.5\ngini = 0.4\nsamples = 227\nvalue = [71, 7, 278]"] ;
332 -> 333 ;
334 [label="X[1] <= 2.5\ngini = 0.3\nsamples = 206\nvalue = [57, 7, 261]"] ;
333 -> 334 ;
335 [label="gini = 0.3\nsamples = 53\nvalue = [8, 4, 68]"] ;
334 -> 335 ;
336 [label="X[1] <= 3.5\ngini = 0.3\nsamples = 153\nvalue = [49, 3, 193]"] ;
334 -> 336 ;
337 [label="gini = 0.4\nsamples = 73\nvalue = [26, 0, 86]"] ;
336 -> 337 ;
338 [label="X[1] <= 4.5\ngini = 0.3\nsamples = 80\nvalue = [23, 3, 107]"] ;
336 -> 338 ;
339 [label="gini = 0.3\nsamples = 53\nvalue = [12, 3, 72]"] ;
338 -> 339 ;
340 [label="gini = 0.4\nsamples = 27\nvalue = [11, 0, 35]"] ;
338 -> 340 ;
341 [label="X[1] <= 8.5\ngini = 0.5\nsamples = 21\nvalue = [14, 0, 17]"] ;
333 -> 341 ;
342 [label="X[1] <= 6.5\ngini = 0.5\nsamples = 19\nvalue = [11, 0, 17]"] ;
341 -> 342 ;
343 [label="gini = 0.5\nsamples = 9\nvalue = [7, 0, 5]"] ;
342 -> 343 ;
344 [label="X[1] <= 7.5\ngini = 0.4\nsamples = 10\nvalue = [4, 0, 12]"] ;
342 -> 344 ;
345 [label="gini = 0.4\nsamples = 9\nvalue = [4, 0, 11]"] ;
344 -> 345 ;
346 [label="gini = 0.0\nsamples = 1\nvalue = [0, 0, 1]"] ;
344 -> 346 ;
347 [label="gini = 0.0\nsamples = 2\nvalue = [3, 0, 0]"] ;
341 -> 347 ;
348 [label="X[1] <= 2.5\ngini = 0.3\nsamples = 86\nvalue = [20, 6, 102]"] ;
332 -> 348 ;
349 [label="gini = 0.5\nsamples = 19\nvalue = [8, 1, 18]"] ;
348 -> 349 ;
350 [label="X[1] <= 4.5\ngini = 0.3\nsamples = 67\nvalue = [12, 5, 84]"] ;
348 -> 350 ;
351 [label="X[1] <= 3.5\ngini = 0.2\nsamples = 40\nvalue = [3, 4, 52]"] ;
350 -> 351 ;
352 [label="gini = 0.3\nsamples = 25\nvalue = [2, 4, 31]"] ;
351 -> 352 ;
353 [label="gini = 0.1\nsamples = 15\nvalue = [1, 0, 21]"] ;
351 -> 353 ;
354 [label="X[1] <= 5.5\ngini = 0.4\nsamples = 27\nvalue = [9, 1, 32]"] ;
350 -> 354 ;
355 [label="gini = 0.4\nsamples = 17\nvalue = [7, 1, 22]"] ;
354 -> 355 ;
356 [label="X[1] <= 7.5\ngini = 0.3\nsamples = 10\nvalue = [2, 0, 10]"] ;
354 -> 356 ;
357 [label="X[1] <= 6.5\ngini = 0.2\nsamples = 8\nvalue = [1, 0, 8]"] ;
356 -> 357 ;
358 [label="gini = 0.2\nsamples = 6\nvalue = [1, 0, 6]"] ;
357 -> 358 ;
359 [label="gini = 0.0\nsamples = 2\nvalue = [0, 0, 2]"] ;
357 -> 359 ;
360 [label="gini = 0.4\nsamples = 2\nvalue = [1, 0, 2]"] ;
356 -> 360 ;
361 [label="X[1] <= 5.5\ngini = 0.5\nsamples = 73\nvalue = [46, 6, 66]"] ;
311 -> 361 ;
362 [label="X[0] <= 15.5\ngini = 0.5\nsamples = 61\nvalue = [28, 6, 61]"] ;
361 -> 362 ;
363 [label="X[1] <= 2.5\ngini = 0.5\nsamples = 57\nvalue = [24, 5, 60]"] ;
362 -> 363 ;
364 [label="gini = 0.3\nsamples = 14\nvalue = [3, 0, 16]"] ;
363 -> 364 ;
365 [label="X[0] <= 14.5\ngini = 0.5\nsamples = 43\nvalue = [21, 5, 44]"] ;
363 -> 365 ;
366 [label="X[1] <= 3.5\ngini = 0.5\nsamples = 41\nvalue = [21, 3, 42]"] ;
365 -> 366 ;
367 [label="gini = 0.4\nsamples = 18\nvalue = [7, 0, 20]"] ;
366 -> 367 ;
368 [label="X[1] <= 4.5\ngini = 0.5\nsamples = 23\nvalue = [14, 3, 22]"] ;
366 -> 368 ;
369 [label="gini = 0.6\nsamples = 11\nvalue = [5, 3, 9]"] ;
368 -> 369 ;
370 [label="gini = 0.5\nsamples = 12\nvalue = [9, 0, 13]"] ;
368 -> 370 ;
371 [label="X[1] <= 3.5\ngini = 0.5\nsamples = 2\nvalue = [0, 2, 2]"] ;
365 -> 371 ;
372 [label="gini = 0.0\nsamples = 1\nvalue = [0, 2, 0]"] ;
371 -> 372 ;
373 [label="gini = 0.0\nsamples = 1\nvalue = [0, 0, 2]"] ;
371 -> 373 ;
374 [label="X[1] <= 3.5\ngini = 0.5\nsamples = 4\nvalue = [4, 1, 1]"] ;
362 -> 374 ;
375 [label="gini = 0.4\nsamples = 2\nvalue = [2, 1, 0]"] ;
374 -> 375 ;
376 [label="gini = 0.4\nsamples = 2\nvalue = [2, 0, 1]"] ;
374 -> 376 ;
377 [label="X[1] <= 7.5\ngini = 0.3\nsamples = 12\nvalue = [18, 0, 5]"] ;
361 -> 377 ;
378 [label="gini = 0.0\nsamples = 7\nvalue = [13, 0, 0]"] ;
377 -> 378 ;
379 [label="X[0] <= 15.0\ngini = 0.5\nsamples = 5\nvalue = [5, 0, 5]"] ;
377 -> 379 ;
380 [label="X[1] <= 9.0\ngini = 0.5\nsamples = 4\nvalue = [4, 0, 5]"] ;
379 -> 380 ;
381 [label="gini = 0.4\nsamples = 3\nvalue = [2, 0, 5]"] ;
380 -> 381 ;
382 [label="gini = 0.0\nsamples = 1\nvalue = [2, 0, 0]"] ;
380 -> 382 ;
383 [label="gini = 0.0\nsamples = 1\nvalue = [1, 0, 0]"] ;
379 -> 383 ;
384 [label="X[0] <= 14.5\ngini = 0.3\nsamples = 9\nvalue = [1, 1, 9]"] ;
310 -> 384 ;
385 [label="X[0] <= 11.0\ngini = 0.2\nsamples = 8\nvalue = [1, 0, 9]"] ;
384 -> 385 ;
386 [label="gini = 0.0\nsamples = 3\nvalue = [0, 0, 4]"] ;
385 -> 386 ;
387 [label="X[1] <= 4.5\ngini = 0.3\nsamples = 5\nvalue = [1, 0, 5]"] ;
385 -> 387 ;
388 [label="gini = 0.0\nsamples = 3\nvalue = [0, 0, 4]"] ;
387 -> 388 ;
389 [label="X[1] <= 5.5\ngini = 0.5\nsamples = 2\nvalue = [1, 0, 1]"] ;
387 -> 389 ;
390 [label="gini = 0.0\nsamples = 1\nvalue = [1, 0, 0]"] ;
389 -> 390 ;
391 [label="gini = 0.0\nsamples = 1\nvalue = [0, 0, 1]"] ;
389 -> 391 ;
392 [label="gini = 0.0\nsamples = 1\nvalue = [0, 1, 0]"] ;
384 -> 392 ;
393 [label="X[0] <= 10.5\ngini = 0.3\nsamples = 90\nvalue = [14, 9, 129]"] ;
309 -> 393 ;
394 [label="X[1] <= 4.5\ngini = 0.4\nsamples = 21\nvalue = [0, 9, 23]"] ;
393 -> 394 ;
395 [label="X[0] <= 9.5\ngini = 0.4\nsamples = 20\nvalue = [0, 8, 23]"] ;
394 -> 395 ;
396 [label="X[1] <= 2.5\ngini = 0.4\nsamples = 3\nvalue = [0, 1, 3]"] ;
395 -> 396 ;
397 [label="gini = 0.0\nsamples = 1\nvalue = [0, 0, 1]"] ;
396 -> 397 ;
398 [label="gini = 0.4\nsamples = 2\nvalue = [0, 1, 2]"] ;
396 -> 398 ;
399 [label="X[1] <= 2.5\ngini = 0.4\nsamples = 17\nvalue = [0, 7, 20]"] ;
395 -> 399 ;
400 [label="gini = 0.5\nsamples = 8\nvalue = [0, 6, 8]"] ;
399 -> 400 ;
401 [label="X[1] <= 3.5\ngini = 0.1\nsamples = 9\nvalue = [0, 1, 12]"] ;
399 -> 401 ;
402 [label="gini = 0.0\nsamples = 5\nvalue = [0, 0, 9]"] ;
401 -> 402 ;
403 [label="gini = 0.4\nsamples = 4\nvalue = [0, 1, 3]"] ;
401 -> 403 ;
404 [label="gini = 0.0\nsamples = 1\nvalue = [0, 1, 0]"] ;
394 -> 404 ;
405 [label="X[0] <= 11.5\ngini = 0.2\nsamples = 69\nvalue = [14, 0, 106]"] ;
393 -> 405 ;
406 [label="gini = 0.0\nsamples = 2\nvalue = [0, 0, 4]"] ;
405 -> 406 ;
407 [label="X[0] <= 12.5\ngini = 0.2\nsamples = 67\nvalue = [14, 0, 102]"] ;
405 -> 407 ;
408 [label="X[1] <= 3.5\ngini = 0.2\nsamples = 33\nvalue = [8, 0, 54]"] ;
407 -> 408 ;
409 [label="gini = 0.0\nsamples = 14\nvalue = [0, 0, 25]"] ;
408 -> 409 ;
410 [label="X[1] <= 4.5\ngini = 0.3\nsamples = 19\nvalue = [8, 0, 29]"] ;
408 -> 410 ;
411 [label="gini = 0.4\nsamples = 8\nvalue = [5, 0, 10]"] ;
410 -> 411 ;
412 [label="X[1] <= 8.5\ngini = 0.2\nsamples = 11\nvalue = [3, 0, 19]"] ;
410 -> 412 ;
413 [label="X[1] <= 7.0\ngini = 0.2\nsamples = 9\nvalue = [2, 0, 17]"] ;
412 -> 413 ;
414 [label="X[1] <= 5.5\ngini = 0.2\nsamples = 8\nvalue = [2, 0, 14]"] ;
413 -> 414 ;
415 [label="gini = 0.2\nsamples = 5\nvalue = [1, 0, 11]"] ;
414 -> 415 ;
416 [label="gini = 0.4\nsamples = 3\nvalue = [1, 0, 3]"] ;
414 -> 416 ;
417 [label="gini = 0.0\nsamples = 1\nvalue = [0, 0, 3]"] ;
413 -> 417 ;
418 [label="gini = 0.4\nsamples = 2\nvalue = [1, 0, 2]"] ;
412 -> 418 ;
419 [label="X[0] <= 13.5\ngini = 0.2\nsamples = 34\nvalue = [6, 0, 48]"] ;
407 -> 419 ;
420 [label="X[1] <= 2.5\ngini = 0.2\nsamples = 20\nvalue = [3, 0, 26]"] ;
419 -> 420 ;
421 [label="gini = 0.4\nsamples = 2\nvalue = [1, 0, 2]"] ;
420 -> 421 ;
422 [label="X[1] <= 4.5\ngini = 0.1\nsamples = 18\nvalue = [2, 0, 24]"] ;
420 -> 422 ;
423 [label="gini = 0.0\nsamples = 6\nvalue = [0, 0, 11]"] ;
422 -> 423 ;
424 [label="X[1] <= 6.5\ngini = 0.2\nsamples = 12\nvalue = [2, 0, 13]"] ;
422 -> 424 ;
425 [label="X[1] <= 5.5\ngini = 0.4\nsamples = 7\nvalue = [2, 0, 5]"] ;
424 -> 425 ;
426 [label="gini = 0.3\nsamples = 5\nvalue = [1, 0, 4]"] ;
425 -> 426 ;
427 [label="gini = 0.5\nsamples = 2\nvalue = [1, 0, 1]"] ;
425 -> 427 ;
428 [label="gini = 0.0\nsamples = 5\nvalue = [0, 0, 8]"] ;
424 -> 428 ;
429 [label="X[1] <= 8.0\ngini = 0.2\nsamples = 14\nvalue = [3, 0, 22]"] ;
419 -> 429 ;
430 [label="X[1] <= 5.5\ngini = 0.1\nsamples = 13\nvalue = [1, 0, 22]"] ;
429 -> 430 ;
431 [label="gini = 0.0\nsamples = 10\nvalue = [0, 0, 20]"] ;
430 -> 431 ;
432 [label="X[1] <= 6.5\ngini = 0.4\nsamples = 3\nvalue = [1, 0, 2]"] ;
430 -> 432 ;
433 [label="gini = 0.5\nsamples = 2\nvalue = [1, 0, 1]"] ;
432 -> 433 ;
434 [label="gini = 0.0\nsamples = 1\nvalue = [0, 0, 1]"] ;
432 -> 434 ;
435 [label="gini = 0.0\nsamples = 1\nvalue = [2, 0, 0]"] ;
429 -> 435 ;
436 [label="X[8] <= 0.5\ngini = 0.5\nsamples = 402\nvalue = [2, 384, 237]"] ;
128 -> 436 ;
437 [label="X[0] <= 11.5\ngini = 0.4\nsamples = 279\nvalue = [2, 311, 115]"] ;
436 -> 437 ;
438 [label="X[1] <= 3.5\ngini = 0.3\nsamples = 171\nvalue = [0, 203, 57]"] ;
437 -> 438 ;
439 [label="X[1] <= 1.5\ngini = 0.3\nsamples = 135\nvalue = [0, 171, 36]"] ;
438 -> 439 ;
440 [label="X[0] <= 9.5\ngini = 0.4\nsamples = 49\nvalue = [0, 55, 17]"] ;
439 -> 440 ;
441 [label="X[2] <= 0.5\ngini = 0.5\nsamples = 2\nvalue = [0, 1, 1]"] ;
440 -> 441 ;
442 [label="gini = 0.0\nsamples = 1\nvalue = [0, 1, 0]"] ;
441 -> 442 ;
443 [label="gini = 0.0\nsamples = 1\nvalue = [0, 0, 1]"] ;
441 -> 443 ;
444 [label="X[3] <= 0.5\ngini = 0.4\nsamples = 47\nvalue = [0, 54, 16]"] ;
440 -> 444 ;
445 [label="X[2] <= 0.5\ngini = 0.4\nsamples = 40\nvalue = [0, 41, 16]"] ;
444 -> 445 ;
446 [label="gini = 0.4\nsamples = 34\nvalue = [0, 37, 11]"] ;
445 -> 446 ;
447 [label="gini = 0.5\nsamples = 6\nvalue = [0, 4, 5]"] ;
445 -> 447 ;
448 [label="gini = 0.0\nsamples = 7\nvalue = [0, 13, 0]"] ;
444 -> 448 ;
449 [label="X[1] <= 2.5\ngini = 0.2\nsamples = 86\nvalue = [0, 116, 19]"] ;
439 -> 449 ;
450 [label="X[2] <= 0.5\ngini = 0.2\nsamples = 41\nvalue = [0, 53, 5]"] ;
449 -> 450 ;
451 [label="X[3] <= 0.5\ngini = 0.2\nsamples = 37\nvalue = [0, 45, 5]"] ;
450 -> 451 ;
452 [label="X[0] <= 9.5\ngini = 0.2\nsamples = 34\nvalue = [0, 38, 5]"] ;
451 -> 452 ;
453 [label="gini = 0.0\nsamples = 7\nvalue = [0, 8, 0]"] ;
452 -> 453 ;
454 [label="gini = 0.2\nsamples = 27\nvalue = [0, 30, 5]"] ;
452 -> 454 ;
455 [label="gini = 0.0\nsamples = 3\nvalue = [0, 7, 0]"] ;
451 -> 455 ;
456 [label="gini = 0.0\nsamples = 4\nvalue = [0, 8, 0]"] ;
450 -> 456 ;
457 [label="X[0] <= 9.5\ngini = 0.3\nsamples = 45\nvalue = [0, 63, 14]"] ;
449 -> 457 ;
458 [label="gini = 0.0\nsamples = 2\nvalue = [0, 5, 0]"] ;
457 -> 458 ;
459 [label="X[3] <= 0.5\ngini = 0.3\nsamples = 43\nvalue = [0, 58, 14]"] ;
457 -> 459 ;
460 [label="X[0] <= 10.5\ngini = 0.3\nsamples = 38\nvalue = [0, 51, 12]"] ;
459 -> 460 ;
461 [label="gini = 0.3\nsamples = 37\nvalue = [0, 49, 12]"] ;
460 -> 461 ;
462 [label="gini = 0.0\nsamples = 1\nvalue = [0, 2, 0]"] ;
460 -> 462 ;
463 [label="X[0] <= 10.5\ngini = 0.3\nsamples = 5\nvalue = [0, 7, 2]"] ;
459 -> 463 ;
464 [label="gini = 0.4\nsamples = 4\nvalue = [0, 6, 2]"] ;
463 -> 464 ;
465 [label="gini = 0.0\nsamples = 1\nvalue = [0, 1, 0]"] ;
463 -> 465 ;
466 [label="X[3] <= 0.5\ngini = 0.5\nsamples = 36\nvalue = [0, 32, 21]"] ;
438 -> 466 ;
467 [label="X[0] <= 9.5\ngini = 0.5\nsamples = 30\nvalue = [0, 25, 20]"] ;
466 -> 467 ;
468 [label="gini = 0.0\nsamples = 1\nvalue = [0, 0, 2]"] ;
467 -> 468 ;
469 [label="X[1] <= 7.0\ngini = 0.5\nsamples = 29\nvalue = [0, 25, 18]"] ;
467 -> 469 ;
470 [label="X[1] <= 4.5\ngini = 0.5\nsamples = 28\nvalue = [0, 24, 18]"] ;
469 -> 470 ;
471 [label="gini = 0.5\nsamples = 14\nvalue = [0, 13, 7]"] ;
470 -> 471 ;
472 [label="X[1] <= 5.5\ngini = 0.5\nsamples = 14\nvalue = [0, 11, 11]"] ;
470 -> 472 ;
473 [label="gini = 0.5\nsamples = 4\nvalue = [0, 3, 3]"] ;
472 -> 473 ;
474 [label="gini = 0.5\nsamples = 10\nvalue = [0, 8, 8]"] ;
472 -> 474 ;
475 [label="gini = 0.0\nsamples = 1\nvalue = [0, 1, 0]"] ;
469 -> 475 ;
476 [label="X[1] <= 4.5\ngini = 0.2\nsamples = 6\nvalue = [0, 7, 1]"] ;
466 -> 476 ;
477 [label="X[0] <= 9.5\ngini = 0.3\nsamples = 4\nvalue = [0, 4, 1]"] ;
476 -> 477 ;
478 [label="gini = 0.0\nsamples = 1\nvalue = [0, 1, 0]"] ;
477 -> 478 ;
479 [label="gini = 0.4\nsamples = 3\nvalue = [0, 3, 1]"] ;
477 -> 479 ;
480 [label="gini = 0.0\nsamples = 2\nvalue = [0, 3, 0]"] ;
476 -> 480 ;
481 [label="X[1] <= 1.5\ngini = 0.5\nsamples = 108\nvalue = [2, 108, 58]"] ;
437 -> 481 ;
482 [label="X[2] <= 0.5\ngini = 0.2\nsamples = 24\nvalue = [0, 32, 5]"] ;
481 -> 482 ;
483 [label="X[3] <= 0.5\ngini = 0.2\nsamples = 23\nvalue = [0, 30, 5]"] ;
482 -> 483 ;
484 [label="X[0] <= 12.5\ngini = 0.2\nsamples = 19\nvalue = [0, 24, 3]"] ;
483 -> 484 ;
485 [label="gini = 0.3\nsamples = 11\nvalue = [0, 12, 3]"] ;
484 -> 485 ;
486 [label="gini = 0.0\nsamples = 8\nvalue = [0, 12, 0]"] ;
484 -> 486 ;
487 [label="X[0] <= 13.0\ngini = 0.4\nsamples = 4\nvalue = [0, 6, 2]"] ;
483 -> 487 ;
488 [label="gini = 0.5\nsamples = 3\nvalue = [0, 2, 2]"] ;
487 -> 488 ;
489 [label="gini = 0.0\nsamples = 1\nvalue = [0, 4, 0]"] ;
487 -> 489 ;
490 [label="gini = 0.0\nsamples = 1\nvalue = [0, 2, 0]"] ;
482 -> 490 ;
491 [label="X[0] <= 13.5\ngini = 0.5\nsamples = 84\nvalue = [2, 76, 53]"] ;
481 -> 491 ;
492 [label="X[3] <= 0.5\ngini = 0.5\nsamples = 61\nvalue = [0, 48, 48]"] ;
491 -> 492 ;
493 [label="X[1] <= 2.5\ngini = 0.5\nsamples = 53\nvalue = [0, 45, 37]"] ;
492 -> 493 ;
494 [label="X[0] <= 12.5\ngini = 0.5\nsamples = 15\nvalue = [0, 7, 12]"] ;
493 -> 494 ;
495 [label="gini = 0.5\nsamples = 10\nvalue = [0, 5, 7]"] ;
494 -> 495 ;
496 [label="gini = 0.4\nsamples = 5\nvalue = [0, 2, 5]"] ;
494 -> 496 ;
497 [label="X[1] <= 5.5\ngini = 0.5\nsamples = 38\nvalue = [0, 38, 25]"] ;
493 -> 497 ;
498 [label="X[0] <= 12.5\ngini = 0.5\nsamples = 35\nvalue = [0, 34, 24]"] ;
497 -> 498 ;
499 [label="X[1] <= 3.5\ngini = 0.5\nsamples = 20\nvalue = [0, 16, 16]"] ;
498 -> 499 ;
500 [label="gini = 0.4\nsamples = 12\nvalue = [0, 14, 6]"] ;
499 -> 500 ;
501 [label="X[1] <= 4.5\ngini = 0.3\nsamples = 8\nvalue = [0, 2, 10]"] ;
499 -> 501 ;
502 [label="gini = 0.0\nsamples = 4\nvalue = [0, 0, 6]"] ;
501 -> 502 ;
503 [label="gini = 0.4\nsamples = 4\nvalue = [0, 2, 4]"] ;
501 -> 503 ;
504 [label="X[1] <= 3.5\ngini = 0.4\nsamples = 15\nvalue = [0, 18, 8]"] ;
498 -> 504 ;
505 [label="gini = 0.5\nsamples = 6\nvalue = [0, 3, 4]"] ;
504 -> 505 ;
506 [label="X[1] <= 4.5\ngini = 0.3\nsamples = 9\nvalue = [0, 15, 4]"] ;
504 -> 506 ;
507 [label="gini = 0.3\nsamples = 6\nvalue = [0, 11, 2]"] ;
506 -> 507 ;
508 [label="gini = 0.4\nsamples = 3\nvalue = [0, 4, 2]"] ;
506 -> 508 ;
509 [label="X[0] <= 12.5\ngini = 0.3\nsamples = 3\nvalue = [0, 4, 1]"] ;
497 -> 509 ;
510 [label="gini = 0.0\nsamples = 1\nvalue = [0, 3, 0]"] ;
509 -> 510 ;
511 [label="gini = 0.5\nsamples = 2\nvalue = [0, 1, 1]"] ;
509 -> 511 ;
512 [label="X[1] <= 5.5\ngini = 0.3\nsamples = 8\nvalue = [0, 3, 11]"] ;
492 -> 512 ;
513 [label="X[0] <= 12.5\ngini = 0.2\nsamples = 6\nvalue = [0, 1, 9]"] ;
512 -> 513 ;
514 [label="gini = 0.0\nsamples = 3\nvalue = [0, 0, 6]"] ;
513 -> 514 ;
515 [label="X[1] <= 4.0\ngini = 0.4\nsamples = 3\nvalue = [0, 1, 3]"] ;
513 -> 515 ;
516 [label="gini = 0.4\nsamples = 2\nvalue = [0, 1, 2]"] ;
515 -> 516 ;
517 [label="gini = 0.0\nsamples = 1\nvalue = [0, 0, 1]"] ;
515 -> 517 ;
518 [label="X[0] <= 12.5\ngini = 0.5\nsamples = 2\nvalue = [0, 2, 2]"] ;
512 -> 518 ;
519 [label="gini = 0.0\nsamples = 1\nvalue = [0, 0, 2]"] ;
518 -> 519 ;
520 [label="gini = 0.0\nsamples = 1\nvalue = [0, 2, 0]"] ;
518 -> 520 ;
521 [label="X[0] <= 14.5\ngini = 0.3\nsamples = 23\nvalue = [2, 28, 5]"] ;
491 -> 521 ;
522 [label="X[1] <= 4.5\ngini = 0.4\nsamples = 19\nvalue = [2, 20, 5]"] ;
521 -> 522 ;
523 [label="X[1] <= 2.5\ngini = 0.2\nsamples = 15\nvalue = [0, 19, 3]"] ;
522 -> 523 ;
524 [label="gini = 0.0\nsamples = 4\nvalue = [0, 4, 0]"] ;
523 -> 524 ;
525 [label="X[1] <= 3.5\ngini = 0.3\nsamples = 11\nvalue = [0, 15, 3]"] ;
523 -> 525 ;
526 [label="gini = 0.3\nsamples = 7\nvalue = [0, 11, 2]"] ;
525 -> 526 ;
527 [label="gini = 0.3\nsamples = 4\nvalue = [0, 4, 1]"] ;
525 -> 527 ;
528 [label="X[1] <= 5.5\ngini = 0.6\nsamples = 4\nvalue = [2, 1, 2]"] ;
522 -> 528 ;
529 [label="gini = 0.4\nsamples = 2\nvalue = [2, 1, 0]"] ;
528 -> 529 ;
530 [label="gini = 0.0\nsamples = 2\nvalue = [0, 0, 2]"] ;
528 -> 530 ;
531 [label="gini = 0.0\nsamples = 4\nvalue = [0, 8, 0]"] ;
521 -> 531 ;
532 [label="X[3] <= 0.5\ngini = 0.5\nsamples = 123\nvalue = [0, 73, 122]"] ;
436 -> 532 ;
533 [label="X[1] <= 1.5\ngini = 0.5\nsamples = 122\nvalue = [0, 72, 122]"] ;
532 -> 533 ;
534 [label="X[0] <= 13.0\ngini = 0.4\nsamples = 15\nvalue = [0, 14, 7]"] ;
533 -> 534 ;
535 [label="X[0] <= 11.0\ngini = 0.4\nsamples = 14\nvalue = [0, 14, 6]"] ;
534 -> 535 ;
536 [label="gini = 0.4\nsamples = 12\nvalue = [0, 12, 5]"] ;
535 -> 536 ;
537 [label="gini = 0.4\nsamples = 2\nvalue = [0, 2, 1]"] ;
535 -> 537 ;
538 [label="gini = 0.0\nsamples = 1\nvalue = [0, 0, 1]"] ;
534 -> 538 ;
539 [label="X[1] <= 5.5\ngini = 0.4\nsamples = 107\nvalue = [0, 58, 115]"] ;
533 -> 539 ;
540 [label="X[0] <= 12.5\ngini = 0.5\nsamples = 99\nvalue = [0, 56, 107]"] ;
539 -> 540 ;
541 [label="X[1] <= 2.5\ngini = 0.5\nsamples = 90\nvalue = [0, 56, 90]"] ;
540 -> 541 ;
542 [label="X[0] <= 9.5\ngini = 0.5\nsamples = 23\nvalue = [0, 16, 20]"] ;
541 -> 542 ;
543 [label="gini = 0.0\nsamples = 2\nvalue = [0, 3, 0]"] ;
542 -> 543 ;
544 [label="X[0] <= 10.5\ngini = 0.5\nsamples = 21\nvalue = [0, 13, 20]"] ;
542 -> 544 ;
545 [label="gini = 0.5\nsamples = 14\nvalue = [0, 11, 13]"] ;
544 -> 545 ;
546 [label="X[0] <= 11.5\ngini = 0.3\nsamples = 7\nvalue = [0, 2, 7]"] ;
544 -> 546 ;
547 [label="gini = 0.0\nsamples = 1\nvalue = [0, 0, 2]"] ;
546 -> 547 ;
548 [label="gini = 0.4\nsamples = 6\nvalue = [0, 2, 5]"] ;
546 -> 548 ;
549 [label="X[1] <= 4.5\ngini = 0.5\nsamples = 67\nvalue = [0, 40, 70]"] ;
541 -> 549 ;
550 [label="X[0] <= 9.5\ngini = 0.5\nsamples = 56\nvalue = [0, 34, 62]"] ;
549 -> 550 ;
551 [label="gini = 0.5\nsamples = 3\nvalue = [0, 2, 2]"] ;
550 -> 551 ;
552 [label="X[1] <= 3.5\ngini = 0.5\nsamples = 53\nvalue = [0, 32, 60]"] ;
550 -> 552 ;
553 [label="X[0] <= 11.0\ngini = 0.5\nsamples = 30\nvalue = [0, 17, 32]"] ;
552 -> 553 ;
554 [label="gini = 0.5\nsamples = 26\nvalue = [0, 15, 27]"] ;
553 -> 554 ;
555 [label="gini = 0.4\nsamples = 4\nvalue = [0, 2, 5]"] ;
553 -> 555 ;
556 [label="X[0] <= 11.0\ngini = 0.5\nsamples = 23\nvalue = [0, 15, 28]"] ;
552 -> 556 ;
557 [label="gini = 0.5\nsamples = 19\nvalue = [0, 12, 22]"] ;
556 -> 557 ;
558 [label="gini = 0.4\nsamples = 4\nvalue = [0, 3, 6]"] ;
556 -> 558 ;
559 [label="X[0] <= 11.0\ngini = 0.5\nsamples = 11\nvalue = [0, 6, 8]"] ;
549 -> 559 ;
560 [label="gini = 0.5\nsamples = 10\nvalue = [0, 5, 8]"] ;
559 -> 560 ;
561 [label="gini = 0.0\nsamples = 1\nvalue = [0, 1, 0]"] ;
559 -> 561 ;
562 [label="gini = 0.0\nsamples = 9\nvalue = [0, 0, 17]"] ;
540 -> 562 ;
563 [label="X[0] <= 13.5\ngini = 0.3\nsamples = 8\nvalue = [0, 2, 8]"] ;
539 -> 563 ;
564 [label="X[1] <= 7.5\ngini = 0.4\nsamples = 7\nvalue = [0, 2, 6]"] ;
563 -> 564 ;
565 [label="X[0] <= 11.5\ngini = 0.4\nsamples = 6\nvalue = [0, 2, 5]"] ;
564 -> 565 ;
566 [label="X[0] <= 9.5\ngini = 0.3\nsamples = 5\nvalue = [0, 1, 5]"] ;
565 -> 566 ;
567 [label="gini = 0.0\nsamples = 1\nvalue = [0, 0, 1]"] ;
566 -> 567 ;
568 [label="X[1] <= 6.5\ngini = 0.3\nsamples = 4\nvalue = [0, 1, 4]"] ;
566 -> 568 ;
569 [label="gini = 0.0\nsamples = 3\nvalue = [0, 0, 4]"] ;
568 -> 569 ;
570 [label="gini = 0.0\nsamples = 1\nvalue = [0, 1, 0]"] ;
568 -> 570 ;
571 [label="gini = 0.0\nsamples = 1\nvalue = [0, 1, 0]"] ;
565 -> 571 ;
572 [label="gini = 0.0\nsamples = 1\nvalue = [0, 0, 1]"] ;
564 -> 572 ;
573 [label="gini = 0.0\nsamples = 1\nvalue = [0, 0, 2]"] ;
563 -> 573 ;
574 [label="gini = 0.0\nsamples = 1\nvalue = [0, 1, 0]"] ;
532 -> 574 ;
575 [label="X[2] <= 0.5\ngini = 0.3\nsamples = 88\nvalue = [10, 17, 111]"] ;
1 -> 575 ;
576 [label="X[8] <= 0.5\ngini = 0.3\nsamples = 87\nvalue = [10, 17, 110]"] ;
575 -> 576 ;
577 [label="X[3] <= 0.5\ngini = 0.2\nsamples = 72\nvalue = [4, 10, 98]"] ;
576 -> 577 ;
578 [label="X[1] <= 3.5\ngini = 0.3\nsamples = 59\nvalue = [4, 10, 80]"] ;
577 -> 578 ;
579 [label="X[1] <= 2.5\ngini = 0.3\nsamples = 41\nvalue = [0, 10, 57]"] ;
578 -> 579 ;
580 [label="X[0] <= 9.0\ngini = 0.3\nsamples = 31\nvalue = [0, 8, 40]"] ;
579 -> 580 ;
581 [label="X[0] <= 7.5\ngini = 0.5\nsamples = 4\nvalue = [0, 3, 3]"] ;
580 -> 581 ;
582 [label="gini = 0.0\nsamples = 1\nvalue = [0, 0, 2]"] ;
581 -> 582 ;
583 [label="X[1] <= 1.5\ngini = 0.4\nsamples = 3\nvalue = [0, 3, 1]"] ;
581 -> 583 ;
584 [label="gini = 0.0\nsamples = 1\nvalue = [0, 0, 1]"] ;
583 -> 584 ;
585 [label="gini = 0.0\nsamples = 2\nvalue = [0, 3, 0]"] ;
583 -> 585 ;
586 [label="X[0] <= 11.0\ngini = 0.2\nsamples = 27\nvalue = [0, 5, 37]"] ;
580 -> 586 ;
587 [label="X[1] <= 1.5\ngini = 0.4\nsamples = 10\nvalue = [0, 3, 10]"] ;
586 -> 587 ;
588 [label="gini = 0.5\nsamples = 6\nvalue = [0, 3, 4]"] ;
587 -> 588 ;
589 [label="gini = 0.0\nsamples = 4\nvalue = [0, 0, 6]"] ;
587 -> 589 ;
590 [label="X[0] <= 12.5\ngini = 0.1\nsamples = 17\nvalue = [0, 2, 27]"] ;
586 -> 590 ;
591 [label="X[1] <= 1.5\ngini = 0.2\nsamples = 11\nvalue = [0, 2, 18]"] ;
590 -> 591 ;
592 [label="gini = 0.2\nsamples = 8\nvalue = [0, 2, 13]"] ;
591 -> 592 ;
593 [label="gini = 0.0\nsamples = 3\nvalue = [0, 0, 5]"] ;
591 -> 593 ;
594 [label="gini = 0.0\nsamples = 6\nvalue = [0, 0, 9]"] ;
590 -> 594 ;
595 [label="X[0] <= 9.5\ngini = 0.2\nsamples = 10\nvalue = [0, 2, 17]"] ;
579 -> 595 ;
596 [label="X[0] <= 8.5\ngini = 0.5\nsamples = 2\nvalue = [0, 2, 3]"] ;
595 -> 596 ;
597 [label="gini = 0.0\nsamples = 1\nvalue = [0, 0, 3]"] ;
596 -> 597 ;
598 [label="gini = 0.0\nsamples = 1\nvalue = [0, 2, 0]"] ;
596 -> 598 ;
599 [label="gini = 0.0\nsamples = 8\nvalue = [0, 0, 14]"] ;
595 -> 599 ;
600 [label="X[0] <= 11.0\ngini = 0.3\nsamples = 18\nvalue = [4, 0, 23]"] ;
578 -> 600 ;
601 [label="gini = 0.0\nsamples = 5\nvalue = [0, 0, 8]"] ;
600 -> 601 ;
602 [label="X[1] <= 4.5\ngini = 0.3\nsamples = 13\nvalue = [4, 0, 15]"] ;
600 -> 602 ;
603 [label="X[0] <= 13.0\ngini = 0.3\nsamples = 10\nvalue = [3, 0, 13]"] ;
602 -> 603 ;
604 [label="gini = 0.5\nsamples = 5\nvalue = [3, 0, 5]"] ;
603 -> 604 ;
605 [label="gini = 0.0\nsamples = 5\nvalue = [0, 0, 8]"] ;
603 -> 605 ;
606 [label="X[1] <= 5.5\ngini = 0.4\nsamples = 3\nvalue = [1, 0, 2]"] ;
602 -> 606 ;
607 [label="X[0] <= 13.0\ngini = 0.5\nsamples = 2\nvalue = [1, 0, 1]"] ;
606 -> 607 ;
608 [label="gini = 0.0\nsamples = 1\nvalue = [0, 0, 1]"] ;
607 -> 608 ;
609 [label="gini = 0.0\nsamples = 1\nvalue = [1, 0, 0]"] ;
607 -> 609 ;
610 [label="gini = 0.0\nsamples = 1\nvalue = [0, 0, 1]"] ;
606 -> 610 ;
611 [label="gini = 0.0\nsamples = 13\nvalue = [0, 0, 18]"] ;
577 -> 611 ;
612 [label="X[0] <= 12.5\ngini = 0.6\nsamples = 15\nvalue = [6, 7, 12]"] ;
576 -> 612 ;
613 [label="X[0] <= 11.0\ngini = 0.5\nsamples = 8\nvalue = [0, 7, 5]"] ;
612 -> 613 ;
614 [label="gini = 0.0\nsamples = 4\nvalue = [0, 0, 4]"] ;
613 -> 614 ;
615 [label="gini = 0.2\nsamples = 4\nvalue = [0, 7, 1]"] ;
613 -> 615 ;
616 [label="X[0] <= 13.5\ngini = 0.5\nsamples = 7\nvalue = [6, 0, 7]"] ;
612 -> 616 ;
617 [label="X[1] <= 3.0\ngini = 0.4\nsamples = 5\nvalue = [6, 0, 3]"] ;
616 -> 617 ;
618 [label="gini = 0.0\nsamples = 2\nvalue = [0, 0, 2]"] ;
617 -> 618 ;
619 [label="X[1] <= 4.5\ngini = 0.2\nsamples = 3\nvalue = [6, 0, 1]"] ;
617 -> 619 ;
620 [label="gini = 0.0\nsamples = 1\nvalue = [3, 0, 0]"] ;
619 -> 620 ;
621 [label="gini = 0.4\nsamples = 2\nvalue = [3, 0, 1]"] ;
619 -> 621 ;
622 [label="gini = 0.0\nsamples = 2\nvalue = [0, 0, 4]"] ;
616 -> 622 ;
623 [label="gini = 0.0\nsamples = 1\nvalue = [0, 0, 1]"] ;
575 -> 623 ;
624 [label="X[1] <= 4.5\ngini = 0.5\nsamples = 652\nvalue = [199, 170, 647]"] ;
0 -> 624 [labeldistance=2.5, labelangle=-45, headlabel="False"] ;
625 [label="X[1] <= 1.5\ngini = 0.5\nsamples = 585\nvalue = [185, 165, 567]"] ;
624 -> 625 ;
626 [label="X[3] <= 0.5\ngini = 0.6\nsamples = 164\nvalue = [42, 58, 152]"] ;
625 -> 626 ;
627 [label="X[2] <= 0.5\ngini = 0.6\nsamples = 159\nvalue = [42, 58, 142]"] ;
626 -> 627 ;
628 [label="X[0] <= 11.0\ngini = 0.6\nsamples = 157\nvalue = [42, 58, 137]"] ;
627 -> 628 ;
629 [label="X[0] <= 8.5\ngini = 0.4\nsamples = 39\nvalue = [0, 41, 13]"] ;
628 -> 629 ;
630 [label="X[8] <= 0.5\ngini = 0.2\nsamples = 16\nvalue = [0, 17, 2]"] ;
629 -> 630 ;
631 [label="X[0] <= 7.5\ngini = 0.2\nsamples = 15\nvalue = [0, 15, 2]"] ;
630 -> 631 ;
632 [label="gini = 0.0\nsamples = 5\nvalue = [0, 6, 0]"] ;
631 -> 632 ;
633 [label="gini = 0.3\nsamples = 10\nvalue = [0, 9, 2]"] ;
631 -> 633 ;
634 [label="gini = 0.0\nsamples = 1\nvalue = [0, 2, 0]"] ;
630 -> 634 ;
635 [label="X[0] <= 9.5\ngini = 0.4\nsamples = 23\nvalue = [0, 24, 11]"] ;
629 -> 635 ;
636 [label="gini = 0.5\nsamples = 3\nvalue = [0, 2, 2]"] ;
635 -> 636 ;
637 [label="gini = 0.4\nsamples = 20\nvalue = [0, 22, 9]"] ;
635 -> 637 ;
638 [label="X[5] <= 0.5\ngini = 0.5\nsamples = 118\nvalue = [42, 17, 124]"] ;
628 -> 638 ;
639 [label="X[8] <= 0.5\ngini = 0.5\nsamples = 117\nvalue = [42, 17, 121]"] ;
638 -> 639 ;
640 [label="X[0] <= 14.5\ngini = 0.5\nsamples = 115\nvalue = [42, 17, 116]"] ;
639 -> 640 ;
641 [label="X[6] <= 0.5\ngini = 0.5\nsamples = 112\nvalue = [42, 17, 112]"] ;
640 -> 641 ;
642 [label="X[0] <= 13.5\ngini = 0.5\nsamples = 111\nvalue = [42, 17, 111]"] ;
641 -> 642 ;
643 [label="X[0] <= 12.5\ngini = 0.5\nsamples = 103\nvalue = [37, 16, 105]"] ;
642 -> 643 ;
644 [label="gini = 0.5\nsamples = 99\nvalue = [36, 16, 101]"] ;
643 -> 644 ;
645 [label="gini = 0.3\nsamples = 4\nvalue = [1, 0, 4]"] ;
643 -> 645 ;
646 [label="gini = 0.6\nsamples = 8\nvalue = [5, 1, 6]"] ;
642 -> 646 ;
647 [label="gini = 0.0\nsamples = 1\nvalue = [0, 0, 1]"] ;
641 -> 647 ;
648 [label="gini = 0.0\nsamples = 3\nvalue = [0, 0, 4]"] ;
640 -> 648 ;
649 [label="gini = 0.0\nsamples = 2\nvalue = [0, 0, 5]"] ;
639 -> 649 ;
650 [label="gini = 0.0\nsamples = 1\nvalue = [0, 0, 3]"] ;
638 -> 650 ;
651 [label="gini = 0.0\nsamples = 2\nvalue = [0, 0, 5]"] ;
627 -> 651 ;
652 [label="gini = 0.0\nsamples = 5\nvalue = [0, 0, 10]"] ;
626 -> 652 ;
653 [label="X[5] <= 0.5\ngini = 0.5\nsamples = 421\nvalue = [143, 107, 415]"] ;
625 -> 653 ;
654 [label="X[0] <= 11.5\ngini = 0.5\nsamples = 419\nvalue = [143, 107, 411]"] ;
653 -> 654 ;
655 [label="X[8] <= 0.5\ngini = 0.5\nsamples = 92\nvalue = [6, 73, 67]"] ;
654 -> 655 ;
656 [label="X[0] <= 7.5\ngini = 0.5\nsamples = 87\nvalue = [4, 72, 64]"] ;
655 -> 656 ;
657 [label="gini = 0.0\nsamples = 5\nvalue = [0, 9, 0]"] ;
656 -> 657 ;
658 [label="X[0] <= 8.5\ngini = 0.5\nsamples = 82\nvalue = [4, 63, 64]"] ;
656 -> 658 ;
659 [label="X[3] <= 0.5\ngini = 0.5\nsamples = 33\nvalue = [3, 31, 22]"] ;
658 -> 659 ;
660 [label="X[1] <= 3.5\ngini = 0.6\nsamples = 31\nvalue = [3, 26, 22]"] ;
659 -> 660 ;
661 [label="X[1] <= 2.5\ngini = 0.6\nsamples = 23\nvalue = [3, 21, 15]"] ;
660 -> 661 ;
662 [label="gini = 0.5\nsamples = 16\nvalue = [0, 13, 10]"] ;
661 -> 662 ;
663 [label="gini = 0.6\nsamples = 7\nvalue = [3, 8, 5]"] ;
661 -> 663 ;
664 [label="gini = 0.5\nsamples = 8\nvalue = [0, 5, 7]"] ;
660 -> 664 ;
665 [label="gini = 0.0\nsamples = 2\nvalue = [0, 5, 0]"] ;
659 -> 665 ;
666 [label="X[0] <= 9.5\ngini = 0.5\nsamples = 49\nvalue = [1, 32, 42]"] ;
658 -> 666 ;
667 [label="X[3] <= 0.5\ngini = 0.5\nsamples = 2\nvalue = [0, 1, 1]"] ;
666 -> 667 ;
668 [label="gini = 0.0\nsamples = 1\nvalue = [0, 1, 0]"] ;
667 -> 668 ;
669 [label="gini = 0.0\nsamples = 1\nvalue = [0, 0, 1]"] ;
667 -> 669 ;
670 [label="X[3] <= 0.5\ngini = 0.5\nsamples = 47\nvalue = [1, 31, 41]"] ;
666 -> 670 ;
671 [label="X[0] <= 10.5\ngini = 0.5\nsamples = 37\nvalue = [0, 28, 34]"] ;
670 -> 671 ;
672 [label="X[1] <= 2.5\ngini = 0.5\nsamples = 35\nvalue = [0, 27, 33]"] ;
671 -> 672 ;
673 [label="gini = 0.4\nsamples = 14\nvalue = [0, 7, 16]"] ;
672 -> 673 ;
674 [label="X[1] <= 3.5\ngini = 0.5\nsamples = 21\nvalue = [0, 20, 17]"] ;
672 -> 674 ;
675 [label="gini = 0.5\nsamples = 16\nvalue = [0, 17, 12]"] ;
674 -> 675 ;
676 [label="gini = 0.5\nsamples = 5\nvalue = [0, 3, 5]"] ;
674 -> 676 ;
677 [label="gini = 0.5\nsamples = 2\nvalue = [0, 1, 1]"] ;
671 -> 677 ;
678 [label="X[1] <= 3.5\ngini = 0.5\nsamples = 10\nvalue = [1, 3, 7]"] ;
670 -> 678 ;
679 [label="X[1] <= 2.5\ngini = 0.2\nsamples = 6\nvalue = [0, 1, 6]"] ;
678 -> 679 ;
680 [label="gini = 0.5\nsamples = 2\nvalue = [0, 1, 1]"] ;
679 -> 680 ;
681 [label="gini = 0.0\nsamples = 4\nvalue = [0, 0, 5]"] ;
679 -> 681 ;
682 [label="gini = 0.6\nsamples = 4\nvalue = [1, 2, 1]"] ;
678 -> 682 ;
683 [label="X[1] <= 3.5\ngini = 0.6\nsamples = 5\nvalue = [2, 1, 3]"] ;
655 -> 683 ;
684 [label="gini = 0.0\nsamples = 2\nvalue = [0, 0, 2]"] ;
683 -> 684 ;
685 [label="gini = 0.6\nsamples = 3\nvalue = [2, 1, 1]"] ;
683 -> 685 ;
686 [label="X[1] <= 2.5\ngini = 0.5\nsamples = 327\nvalue = [137, 34, 344]"] ;
654 -> 686 ;
687 [label="X[8] <= 0.5\ngini = 0.5\nsamples = 152\nvalue = [61, 20, 164]"] ;
686 -> 687 ;
688 [label="X[0] <= 12.5\ngini = 0.5\nsamples = 147\nvalue = [61, 18, 160]"] ;
687 -> 688 ;
689 [label="X[3] <= 0.5\ngini = 0.4\nsamples = 116\nvalue = [46, 6, 135]"] ;
688 -> 689 ;
690 [label="gini = 0.4\nsamples = 109\nvalue = [44, 6, 125]"] ;
689 -> 690 ;
691 [label="gini = 0.3\nsamples = 7\nvalue = [2, 0, 10]"] ;
689 -> 691 ;
692 [label="X[3] <= 0.5\ngini = 0.6\nsamples = 31\nvalue = [15, 12, 25]"] ;
688 -> 692 ;
693 [label="X[0] <= 17.0\ngini = 0.6\nsamples = 28\nvalue = [15, 10, 24]"] ;
692 -> 693 ;
694 [label="X[0] <= 13.5\ngini = 0.6\nsamples = 27\nvalue = [15, 9, 24]"] ;
693 -> 694 ;
695 [label="gini = 0.6\nsamples = 10\nvalue = [4, 5, 11]"] ;
694 -> 695 ;
696 [label="X[0] <= 15.5\ngini = 0.6\nsamples = 17\nvalue = [11, 4, 13]"] ;
694 -> 696 ;
697 [label="X[0] <= 14.5\ngini = 0.6\nsamples = 16\nvalue = [11, 4, 12]"] ;
696 -> 697 ;
698 [label="gini = 0.6\nsamples = 15\nvalue = [10, 4, 12]"] ;
697 -> 698 ;
699 [label="gini = 0.0\nsamples = 1\nvalue = [1, 0, 0]"] ;
697 -> 699 ;
700 [label="gini = 0.0\nsamples = 1\nvalue = [0, 0, 1]"] ;
696 -> 700 ;
701 [label="gini = 0.0\nsamples = 1\nvalue = [0, 1, 0]"] ;
693 -> 701 ;
702 [label="X[0] <= 15.5\ngini = 0.4\nsamples = 3\nvalue = [0, 2, 1]"] ;
692 -> 702 ;
703 [label="gini = 0.5\nsamples = 2\nvalue = [0, 1, 1]"] ;
702 -> 703 ;
704 [label="gini = 0.0\nsamples = 1\nvalue = [0, 1, 0]"] ;
702 -> 704 ;
705 [label="X[0] <= 15.5\ngini = 0.4\nsamples = 5\nvalue = [0, 2, 4]"] ;
687 -> 705 ;
706 [label="X[0] <= 13.0\ngini = 0.3\nsamples = 4\nvalue = [0, 1, 4]"] ;
705 -> 706 ;
707 [label="gini = 0.4\nsamples = 3\nvalue = [0, 1, 3]"] ;
706 -> 707 ;
708 [label="gini = 0.0\nsamples = 1\nvalue = [0, 0, 1]"] ;
706 -> 708 ;
709 [label="gini = 0.0\nsamples = 1\nvalue = [0, 1, 0]"] ;
705 -> 709 ;
710 [label="X[8] <= 0.5\ngini = 0.5\nsamples = 175\nvalue = [76, 14, 180]"] ;
686 -> 710 ;
711 [label="X[0] <= 13.5\ngini = 0.5\nsamples = 169\nvalue = [76, 14, 171]"] ;
710 -> 711 ;
712 [label="X[1] <= 3.5\ngini = 0.5\nsamples = 148\nvalue = [58, 13, 157]"] ;
711 -> 712 ;
713 [label="X[0] <= 12.5\ngini = 0.4\nsamples = 100\nvalue = [42, 5, 106]"] ;
712 -> 713 ;
714 [label="X[3] <= 0.5\ngini = 0.4\nsamples = 97\nvalue = [41, 5, 104]"] ;
713 -> 714 ;
715 [label="gini = 0.5\nsamples = 92\nvalue = [41, 5, 99]"] ;
714 -> 715 ;
716 [label="gini = 0.0\nsamples = 5\nvalue = [0, 0, 5]"] ;
714 -> 716 ;
717 [label="X[3] <= 0.5\ngini = 0.4\nsamples = 3\nvalue = [1, 0, 2]"] ;
713 -> 717 ;
718 [label="gini = 0.0\nsamples = 2\nvalue = [0, 0, 2]"] ;
717 -> 718 ;
719 [label="gini = 0.0\nsamples = 1\nvalue = [1, 0, 0]"] ;
717 -> 719 ;
720 [label="X[3] <= 0.5\ngini = 0.5\nsamples = 48\nvalue = [16, 8, 51]"] ;
712 -> 720 ;
721 [label="X[0] <= 12.5\ngini = 0.5\nsamples = 46\nvalue = [16, 8, 48]"] ;
720 -> 721 ;
722 [label="gini = 0.5\nsamples = 42\nvalue = [16, 4, 46]"] ;
721 -> 722 ;
723 [label="gini = 0.4\nsamples = 4\nvalue = [0, 4, 2]"] ;
721 -> 723 ;
724 [label="gini = 0.0\nsamples = 2\nvalue = [0, 0, 3]"] ;
720 -> 724 ;
725 [label="X[3] <= 0.5\ngini = 0.5\nsamples = 21\nvalue = [18, 1, 14]"] ;
711 -> 725 ;
726 [label="X[0] <= 16.5\ngini = 0.5\nsamples = 20\nvalue = [18, 1, 13]"] ;
725 -> 726 ;
727 [label="X[0] <= 15.0\ngini = 0.5\nsamples = 18\nvalue = [18, 1, 9]"] ;
726 -> 727 ;
728 [label="X[1] <= 3.5\ngini = 0.5\nsamples = 14\nvalue = [13, 1, 9]"] ;
727 -> 728 ;
729 [label="gini = 0.6\nsamples = 7\nvalue = [5, 1, 3]"] ;
728 -> 729 ;
730 [label="gini = 0.5\nsamples = 7\nvalue = [8, 0, 6]"] ;
728 -> 730 ;
731 [label="gini = 0.0\nsamples = 4\nvalue = [5, 0, 0]"] ;
727 -> 731 ;
732 [label="gini = 0.0\nsamples = 2\nvalue = [0, 0, 4]"] ;
726 -> 732 ;
733 [label="gini = 0.0\nsamples = 1\nvalue = [0, 0, 1]"] ;
725 -> 733 ;
734 [label="gini = 0.0\nsamples = 6\nvalue = [0, 0, 9]"] ;
710 -> 734 ;
735 [label="gini = 0.0\nsamples = 2\nvalue = [0, 0, 4]"] ;
653 -> 735 ;
736 [label="X[6] <= 0.5\ngini = 0.3\nsamples = 67\nvalue = [14, 5, 80]"] ;
624 -> 736 ;
737 [label="X[1] <= 8.5\ngini = 0.3\nsamples = 66\nvalue = [14, 5, 78]"] ;
736 -> 737 ;
738 [label="X[0] <= 11.0\ngini = 0.3\nsamples = 65\nvalue = [10, 5, 78]"] ;
737 -> 738 ;
739 [label="X[0] <= 9.0\ngini = 0.4\nsamples = 11\nvalue = [0, 3, 10]"] ;
738 -> 739 ;
740 [label="gini = 0.0\nsamples = 2\nvalue = [0, 0, 2]"] ;
739 -> 740 ;
741 [label="X[3] <= 0.5\ngini = 0.4\nsamples = 9\nvalue = [0, 3, 8]"] ;
739 -> 741 ;
742 [label="X[8] <= 0.5\ngini = 0.4\nsamples = 8\nvalue = [0, 3, 6]"] ;
741 -> 742 ;
743 [label="X[1] <= 5.5\ngini = 0.5\nsamples = 7\nvalue = [0, 3, 5]"] ;
742 -> 743 ;
744 [label="gini = 0.5\nsamples = 4\nvalue = [0, 3, 2]"] ;
743 -> 744 ;
745 [label="gini = 0.0\nsamples = 3\nvalue = [0, 0, 3]"] ;
743 -> 745 ;
746 [label="gini = 0.0\nsamples = 1\nvalue = [0, 0, 1]"] ;
742 -> 746 ;
747 [label="gini = 0.0\nsamples = 1\nvalue = [0, 0, 2]"] ;
741 -> 747 ;
748 [label="X[1] <= 5.5\ngini = 0.3\nsamples = 54\nvalue = [10, 2, 68]"] ;
738 -> 748 ;
749 [label="X[8] <= 0.5\ngini = 0.4\nsamples = 31\nvalue = [9, 2, 36]"] ;
748 -> 749 ;
750 [label="X[0] <= 12.5\ngini = 0.3\nsamples = 24\nvalue = [7, 1, 29]"] ;
749 -> 750 ;
751 [label="X[3] <= 0.5\ngini = 0.4\nsamples = 16\nvalue = [6, 0, 17]"] ;
750 -> 751 ;
752 [label="gini = 0.4\nsamples = 15\nvalue = [6, 0, 15]"] ;
751 -> 752 ;
753 [label="gini = 0.0\nsamples = 1\nvalue = [0, 0, 2]"] ;
751 -> 753 ;
754 [label="X[0] <= 13.5\ngini = 0.3\nsamples = 8\nvalue = [1, 1, 12]"] ;
750 -> 754 ;
755 [label="X[3] <= 0.5\ngini = 0.3\nsamples = 4\nvalue = [0, 1, 4]"] ;
754 -> 755 ;
756 [label="gini = 0.4\nsamples = 3\nvalue = [0, 1, 3]"] ;
755 -> 756 ;
757 [label="gini = 0.0\nsamples = 1\nvalue = [0, 0, 1]"] ;
755 -> 757 ;
758 [label="X[3] <= 0.5\ngini = 0.2\nsamples = 4\nvalue = [1, 0, 8]"] ;
754 -> 758 ;
759 [label="gini = 0.2\nsamples = 3\nvalue = [1, 0, 7]"] ;
758 -> 759 ;
760 [label="gini = 0.0\nsamples = 1\nvalue = [0, 0, 1]"] ;
758 -> 760 ;
761 [label="X[0] <= 13.5\ngini = 0.5\nsamples = 7\nvalue = [2, 1, 7]"] ;
749 -> 761 ;
762 [label="X[0] <= 12.5\ngini = 0.6\nsamples = 5\nvalue = [2, 1, 4]"] ;
761 -> 762 ;
763 [label="gini = 0.5\nsamples = 2\nvalue = [1, 0, 1]"] ;
762 -> 763 ;
764 [label="gini = 0.6\nsamples = 3\nvalue = [1, 1, 3]"] ;
762 -> 764 ;
765 [label="gini = 0.0\nsamples = 2\nvalue = [0, 0, 3]"] ;
761 -> 765 ;
766 [label="X[1] <= 6.5\ngini = 0.1\nsamples = 23\nvalue = [1, 0, 32]"] ;
748 -> 766 ;
767 [label="X[8] <= 0.5\ngini = 0.1\nsamples = 18\nvalue = [1, 0, 25]"] ;
766 -> 767 ;
768 [label="X[5] <= 0.5\ngini = 0.1\nsamples = 17\nvalue = [1, 0, 23]"] ;
767 -> 768 ;
769 [label="X[3] <= 0.5\ngini = 0.1\nsamples = 12\nvalue = [1, 0, 18]"] ;
768 -> 769 ;
770 [label="X[0] <= 13.0\ngini = 0.1\nsamples = 11\nvalue = [1, 0, 17]"] ;
769 -> 770 ;
771 [label="gini = 0.0\nsamples = 6\nvalue = [0, 0, 12]"] ;
770 -> 771 ;
772 [label="gini = 0.3\nsamples = 5\nvalue = [1, 0, 5]"] ;
770 -> 772 ;
773 [label="gini = 0.0\nsamples = 1\nvalue = [0, 0, 1]"] ;
769 -> 773 ;
774 [label="gini = 0.0\nsamples = 5\nvalue = [0, 0, 5]"] ;
768 -> 774 ;
775 [label="gini = 0.0\nsamples = 1\nvalue = [0, 0, 2]"] ;
767 -> 775 ;
776 [label="gini = 0.0\nsamples = 5\nvalue = [0, 0, 7]"] ;
766 -> 776 ;
777 [label="gini = 0.0\nsamples = 1\nvalue = [4, 0, 0]"] ;
737 -> 777 ;
778 [label="gini = 0.0\nsamples = 1\nvalue = [0, 0, 2]"] ;
736 -> 778 ;
}